%YAML:1.0
---
opencv_ml_svm:
   format: 3
   svmType: NU_SVC
   kernel:
      type: LINEAR
   nu: 1.4999999999999999e-01
   term_criteria: { epsilon:1.1920928955078125e-07, iterations:1000 }
   var_count: 64
   class_count: 10
   class_labels: !!opencv-matrix
      rows: 10
      cols: 1
      dt: i
      data: [ 0, 1, 2, 3, 4, 5, 6, 7, 8, 9 ]
   sv_total: 45
   support_vectors:
      - [ 3.35119807e-06, 3.76075041e-05, 2.60791749e-05, 2.29251018e-05,
          5.40159726e-06, -1.04979655e-07, 1.22879180e-06,
          5.14840622e-06, 4.10236898e-05, 3.10812211e-05, 9.16731915e-06,
          3.41061605e-06, 7.75395108e-07, -2.99888188e-06,
          -6.20579340e-06, -3.31501506e-05, -1.58297571e-05,
          -1.91188192e-05, -1.00972675e-05, 1.91987112e-07,
          1.36924973e-05, 2.08666552e-05, 2.48088218e-05, 4.17588199e-05,
          4.65047960e-05, 1.08766590e-05, -2.94748520e-06,
          -3.54937629e-06, 3.19849569e-05, 3.38208956e-05,
          2.66315601e-05, -7.85381144e-06, -1.57303930e-06,
          -1.26280133e-06, -1.35835467e-06, 5.30211810e-06,
          2.55555351e-05, 2.97884326e-05, 4.56506132e-05,
          -1.60721338e-05, -5.59268447e-05, 8.03265630e-06,
          1.42566360e-05, 1.27422782e-05, 1.56645874e-05, 1.93734359e-05,
          2.90499429e-05, 3.32472700e-05, 4.05452956e-05, 3.79727790e-05,
          3.11411604e-05, 2.65614199e-05, 7.36311813e-06,
          -4.65788435e-06, -1.06912630e-05, -2.87395396e-05,
          -2.80263703e-05, 3.22199558e-05, 3.16781152e-05,
          4.44119141e-05, -2.69481257e-06, -5.37417736e-06,
          2.06855930e-07, 2.14240754e-05 ]
      - [ 7.31129403e-05, 7.39204697e-05, 1.57710765e-05,
          -1.80909865e-05, -2.46079908e-05, -1.00314128e-05,
          2.96515339e-07, 2.77378626e-06, 5.01780560e-05, 4.87520374e-05,
          4.01861598e-06, -2.63531165e-05, -2.46229774e-05,
          -4.18494164e-05, -1.91607414e-05, -2.51746837e-06,
          1.52264038e-05, -8.16932152e-05, -5.08082558e-05,
          -4.80355411e-05, 2.06702316e-06, 2.97692677e-05,
          3.05951253e-05, 4.64140103e-05, 5.25890391e-05,
          -7.68929476e-06, -2.00375762e-05, -4.73572582e-05,
          3.58478269e-06, 2.27868950e-05, 1.79334456e-05, 5.87389113e-05,
          -3.37837882e-05, -1.73349472e-05, -6.99241946e-06,
          -2.23848360e-06, 3.70288617e-05, 1.79270846e-05,
          1.15083621e-05, 7.33853085e-06, -3.71427559e-05,
          -1.82330641e-05, 2.61780292e-06, 2.92183759e-05,
          2.04823391e-05, 1.95302837e-05, 1.48604977e-05,
          -5.82968187e-06, 5.06521683e-05, 4.28571984e-05,
          3.92622387e-05, 9.30195802e-06, -2.62757385e-05,
          -3.79380181e-05, -5.05077805e-05, 1.02979566e-05,
          4.77898357e-05, 1.18099288e-05, -4.81333154e-06,
          4.45095156e-06, -2.92869518e-05, -2.17659453e-05,
          -1.08662034e-05, 2.93640223e-05 ]
      - [ 6.84082333e-05, 4.77848807e-05, -1.65399197e-05,
          -2.73943224e-05, -1.60075506e-05, -1.12693738e-06,
          2.12183315e-09, 2.43742170e-06, 4.30493747e-05, 6.97555661e-05,
          1.44654332e-05, -3.09896095e-05, -4.14149254e-05,
          -4.76490750e-05, -3.75791169e-05, -2.08638285e-05,
          5.28661549e-05, -5.53420432e-05, -4.61851341e-05,
          -4.46242302e-05, -2.00173981e-05, -3.00480480e-07,
          2.73035130e-05, 4.90872189e-05, 7.56111258e-05, 3.16181031e-05,
          -1.57566792e-05, -5.39547837e-05, -2.94311358e-05,
          -4.68227154e-06, 1.60102391e-05, 8.45295290e-05,
          -2.15311206e-06, -3.07304181e-05, -2.16679346e-05,
          5.82363327e-06, 2.11321894e-05, 2.44308121e-05, 8.58749991e-06,
          1.10485116e-05, -4.56440539e-05, -3.04424793e-05,
          7.29239855e-06, 2.59337066e-05, 3.60138110e-05, 3.33300122e-05,
          4.14124443e-05, 3.67257708e-05, 3.78307996e-05, 2.69772336e-05,
          2.49414752e-05, 4.59988878e-05, 2.37861695e-05,
          -1.92167518e-05, -4.60144765e-05, -2.11281822e-05,
          1.10329111e-05, 8.67972540e-06, 9.49302193e-06, 3.44501677e-05,
          -1.50904934e-05, -3.59580699e-05, -2.85512815e-05,
          1.21148369e-05 ]
      - [ 3.15623802e-05, 1.29681121e-05, 4.17600568e-05, 4.11179317e-05,
          -4.39908126e-06, -2.65763993e-05, -3.15120851e-05,
          -2.74432241e-05, 2.78844600e-05, 3.29202776e-05,
          2.89642976e-05, 1.25780580e-05, 1.10920473e-05, 4.47598950e-06,
          1.20463101e-05, 1.57929553e-05, -1.13047799e-05,
          -3.69183035e-05, -8.68122788e-06, -1.44967917e-05,
          1.05099834e-05, 1.62693523e-05, 3.18129569e-05, 7.10123350e-05,
          7.71892010e-05, 1.58920648e-05, -8.46056992e-06,
          -6.45020991e-05, -2.18540263e-05, 1.68645383e-05,
          3.30025468e-05, 4.22401099e-05, -5.52383899e-05,
          -7.37396113e-05, -4.00985591e-05, -5.86950136e-06,
          3.17652193e-05, 5.17212684e-05, 6.86815983e-05, 1.53630117e-05,
          -5.87312679e-05, -1.80933221e-05, 2.13828989e-05,
          3.09831958e-05, 3.31186711e-05, 3.90690475e-05, 5.48010430e-05,
          1.62366632e-05, 7.54051071e-05, 5.40854999e-05, 4.47310595e-05,
          2.45623833e-05, -6.35159404e-06, -2.59787867e-05,
          -2.47314310e-05, 8.14968735e-06, 3.28658587e-07,
          -2.02787724e-05, 4.94631695e-06, 2.57568063e-05,
          4.02063006e-06, -3.76164644e-05, -3.70508897e-05,
          1.72493619e-05 ]
      - [ 1.22968295e-05, 1.37237612e-05, 4.57346832e-05, 1.67034759e-05,
          1.04966211e-05, -1.24693461e-05, -1.49539646e-05,
          -1.64988160e-05, 2.62072590e-05, 4.19612115e-05,
          2.31992017e-05, 3.39691326e-07, 1.23112859e-05,
          -1.79231793e-05, -2.46792988e-05, -3.79681769e-05,
          5.24725619e-05, -3.78997174e-05, -3.57958270e-05,
          -2.70839919e-05, -2.28976551e-05, 1.75156802e-05,
          2.85785591e-05, 5.78323488e-05, 6.42717278e-05, 1.92566877e-05,
          -2.98856994e-05, -4.96446883e-05, -1.17220543e-05,
          6.74807006e-06, 3.01682085e-05, 8.43113667e-05, 1.30161152e-05,
          2.54158454e-06, -5.58383044e-06, -5.81959212e-05,
          -3.56785895e-05, -3.49744187e-06, 5.97091494e-05,
          6.02338223e-05, 9.98300402e-06, -2.12274699e-05,
          -5.09495439e-05, -4.61622876e-05, -8.79636900e-06,
          3.89223205e-05, 4.84780976e-05, 4.60381925e-05, 2.49496497e-05,
          2.73899077e-05, 1.79267045e-05, 2.87007570e-05, 7.18014644e-06,
          -2.27520832e-05, -4.69781917e-05, -2.58321088e-05,
          3.32715099e-05, 1.16104184e-05, 1.69185769e-05, 3.56597484e-05,
          -1.76483918e-05, -3.17794329e-05, -3.05234171e-05,
          1.37083816e-06 ]
      - [ -3.18539824e-05, -3.11974800e-05, 3.94813869e-05,
          6.86015774e-05, 1.68826518e-05, 7.88370073e-07,
          -1.17440604e-05, -1.13548958e-05, -5.82678331e-06,
          2.87696585e-05, 3.00778847e-05, 1.37164097e-05, 1.29806058e-05,
          8.00595899e-06, 9.34231866e-06, 1.62495544e-05,
          -1.08447684e-05, -1.87967307e-05, -2.52848531e-05,
          1.43355992e-05, 2.23968000e-05, 1.20492678e-05, 2.13257608e-05,
          6.01376814e-05, 5.46517440e-05, 1.42662784e-05,
          -1.45444137e-05, -2.61819932e-05, 1.05734216e-05,
          3.16889709e-05, 1.83255797e-05, 8.52211997e-06, 1.96265919e-05,
          -4.72553547e-05, -9.75937946e-05, -6.91439636e-05,
          -2.72213092e-05, 4.96647954e-05, 1.00128920e-04,
          9.69668181e-05, -4.05811770e-05, -8.19230117e-05,
          -3.50798364e-05, 1.10775882e-05, 3.85753119e-05,
          5.11136932e-05, 6.36017721e-05, 8.21405047e-05, 7.70980187e-05,
          4.75237648e-05, 5.24474162e-05, 2.66627449e-05,
          -4.46735567e-06, -2.37237000e-05, -2.90023108e-05,
          1.00181433e-05, 5.15165884e-05, 1.39228666e-06,
          -1.99893730e-05, -2.15506643e-05, -2.86436443e-05,
          -2.49441673e-05, -7.46775186e-06, 2.04408916e-05 ]
      - [ 5.71638411e-05, 3.68579422e-05, 9.41555481e-06,
          -2.22286817e-05, -2.54011193e-05, -6.35686956e-06,
          -4.73998014e-08, 3.54730741e-06, 4.17219708e-05,
          2.57180618e-05, 6.95732342e-06, -2.60909801e-05,
          -3.35892546e-05, -1.79796371e-05, -5.07234199e-06,
          1.43661373e-05, -3.06029469e-05, -5.17416775e-05,
          -2.56462699e-05, -1.21530711e-05, 2.29891248e-05,
          3.09722018e-05, 3.07877199e-05, 5.00742135e-05, 4.00022109e-05,
          -2.22536869e-06, -3.33671414e-05, -1.28741740e-05,
          3.35163859e-05, 4.21531295e-05, 2.77536365e-05, 3.97102303e-05,
          -1.10434457e-05, -1.29052905e-05, -6.07008451e-06,
          -1.95122848e-05, -8.28870179e-06, 2.50708654e-05,
          3.75196214e-05, 4.29671745e-05, -3.56125965e-05,
          -1.46913935e-05, 5.48252137e-06, 1.48871768e-05,
          8.65187394e-06, 5.27827660e-06, 1.58364583e-05, 2.58085474e-05,
          2.41618436e-05, 1.03597013e-05, 2.48766955e-05, 3.57105528e-05,
          1.11804366e-05, -9.47757417e-06, -1.01588421e-05,
          8.24698145e-06, -3.08732670e-05, -3.03395955e-05,
          1.63494733e-05, 5.05831267e-05, 1.41420333e-05,
          -3.32899890e-06, -9.89521027e-07, 1.25770703e-05 ]
      - [ 5.05007520e-05, 6.50926377e-05, 2.45110350e-05,
          -1.58831335e-05, -2.18133155e-05, -3.19394203e-05,
          -3.65447959e-05, -1.66802747e-05, 2.88596530e-05,
          5.23097369e-05, 3.07381629e-06, 1.64432277e-05, 1.59306364e-05,
          -1.92357111e-05, -6.57542987e-05, -5.31258229e-05,
          -1.45944095e-05, -7.64991273e-05, -2.70894852e-05,
          9.19624199e-06, 2.84475082e-05, 3.07725168e-05, 3.98726588e-05,
          5.54692269e-05, 6.90525776e-05, -1.09354332e-05,
          -2.96618527e-05, -2.33303635e-05, 2.08992478e-05,
          3.22298838e-05, -1.54779555e-05, 1.85755307e-05,
          -8.75555907e-06, -3.77534343e-05, -4.37563467e-05,
          -4.29789798e-05, -9.54409370e-06, 3.97260328e-06,
          4.15434552e-05, 6.52307936e-05, -3.84557970e-05,
          -4.80048075e-05, -3.00934680e-05, 1.71817428e-05,
          2.70959190e-05, 2.63583806e-05, 3.28978531e-05, 4.05369465e-05,
          6.75860429e-05, 5.93409422e-05, 4.35072143e-05, 2.79699725e-05,
          1.06129119e-05, -2.18361693e-05, -7.77824898e-05,
          -4.74473090e-05, 4.13800190e-05, 1.61938078e-05,
          -8.77499588e-06, 2.69909060e-06, -4.66439233e-05,
          -3.85975218e-05, -1.94866116e-05, 3.35340046e-05 ]
      - [ 5.39889552e-05, 2.24484138e-05, -6.27712143e-06,
          9.55128507e-06, 2.60766251e-06, 6.91024297e-07,
          -5.61620072e-06, -1.68078022e-05, 3.09524767e-05,
          1.64991743e-05, -1.35703203e-05, -1.23985626e-06,
          2.04655385e-06, -3.19057136e-07, -8.83388293e-06,
          2.15825567e-05, -9.35286243e-06, -3.75252494e-05,
          -2.30387886e-05, -2.99189269e-05, 2.58340992e-06,
          1.14628701e-05, 3.42343010e-05, 7.91746061e-05, 9.21786923e-05,
          3.01545042e-05, 1.39752740e-06, -5.57514031e-05,
          -1.07476926e-05, 1.13942406e-05, 2.63994425e-05,
          6.72921597e-05, -2.52899154e-05, -5.04752825e-05,
          -1.50047626e-05, -3.10864234e-05, 5.64880338e-06,
          3.53190699e-05, 5.08739395e-05, 4.01571269e-05,
          -4.20306387e-05, -4.20749666e-06, 2.14840584e-05,
          6.17335672e-06, 2.06150617e-05, 1.74118995e-05, 3.19507817e-05,
          3.83809893e-05, 5.32595332e-05, 5.22998635e-05, 1.59127867e-05,
          5.27736556e-05, 3.06577313e-05, 3.95425786e-07, 3.24434131e-06,
          -6.24462359e-07, -9.57057200e-05, -7.16091381e-05,
          6.22702573e-05, 1.01088932e-04, 2.36165833e-05,
          -2.59819808e-05, -3.00536667e-05, 6.37973199e-06 ]
      - [ 5.18153829e-05, 3.93562641e-06, -2.95364298e-05,
          -4.05585779e-05, -1.71588108e-05, -7.35378899e-06,
          -1.87974172e-06, -1.32298101e-06, -6.18348440e-06,
          -1.25681663e-05, -1.18034459e-05, -2.26675165e-05,
          -1.68538209e-05, -2.25179356e-05, -1.42911513e-05,
          4.29326792e-05, 4.15819777e-05, -3.98105549e-05,
          -2.69532939e-05, -3.55794728e-05, -1.32388477e-05,
          -9.23396874e-06, -5.99775603e-06, -5.31886508e-06,
          -5.67838333e-06, -9.28314057e-06, -1.86542275e-05,
          -2.90208936e-05, -3.26050285e-05, -3.03530833e-05,
          -9.16555291e-06, 4.03176709e-05, -2.79309861e-05,
          -1.71747433e-05, -3.44619139e-06, -1.24635362e-05,
          -1.11285253e-05, -2.38578250e-05, -2.78912103e-05,
          1.84017026e-05, 2.74585145e-05, -1.18891176e-05,
          -6.02891805e-06, -9.34102263e-06, -7.51465450e-06,
          -1.40446919e-05, -1.31896186e-05, -2.31095073e-05,
          -2.75101070e-06, -1.14358409e-05, -1.32711375e-05,
          -2.24144915e-05, -2.25827225e-05, -3.57077442e-05,
          -2.41756679e-05, 4.45391597e-05, 5.83442779e-05,
          -3.44981927e-05, -3.20856161e-05, -3.38956052e-05,
          -2.88296033e-05, -2.57206484e-05, -5.60458284e-06,
          8.23966548e-06 ]
      - [ 4.82319920e-05, -5.73375837e-06, -4.25741018e-05,
          -4.85407654e-05, -2.17471825e-05, -2.22986296e-06,
          -1.11962891e-06, -1.83728929e-07, -7.07196193e-07,
          -5.52269557e-06, -8.55207588e-07, -2.50027970e-05,
          -3.07021437e-05, -2.81201574e-05, -1.78435839e-05,
          3.63806066e-05, 5.77686224e-05, -1.74116121e-05,
          -2.82272267e-05, -2.47651260e-05, -2.64951595e-05,
          -1.53732362e-05, -4.53384655e-06, -1.12164480e-06,
          -1.46386992e-06, -3.92276718e-07, -4.74484068e-06,
          -1.91591280e-05, -4.61740638e-05, -4.22348203e-05,
          -1.95507691e-05, 5.04657219e-05, -2.61153104e-06,
          -1.07892138e-05, -5.99720079e-06, -4.79235132e-06,
          -2.42609640e-05, -2.80790337e-05, -2.70394903e-05,
          3.48123358e-05, 3.05000995e-05, -2.64128375e-05,
          -9.06204423e-06, -2.15356908e-06, -6.54009909e-06,
          -8.81795040e-06, -9.87291332e-06, -3.21956077e-06,
          -1.27410185e-05, -2.12217165e-05, -1.65804267e-05,
          -5.10169775e-06, 5.64024390e-07, -2.80415361e-06,
          -1.53821002e-05, 1.66060236e-05, 4.29105094e-05,
          -4.18158124e-05, -3.72265968e-05, -1.12004909e-05,
          1.01924331e-06, -5.82610528e-06, -1.54875870e-05,
          -6.71532598e-06 ]
      - [ 3.08106210e-05, -2.44859657e-05, -7.38087329e-06,
          -1.38783516e-05, -3.44189757e-05, -4.00820900e-05,
          -5.19280547e-05, -5.41223453e-05, -5.14371459e-05,
          -2.60416855e-05, 1.07763335e-05, 4.25970882e-07,
          1.18946182e-05, 1.72975269e-05, 2.29449761e-05, 9.08482616e-05,
          5.10746577e-05, 4.64427922e-06, 1.47129822e-05,
          -5.19192827e-06, -1.92587013e-05, -3.15965881e-05,
          -2.00176546e-05, -1.56303558e-05, -8.51914410e-06,
          -1.09901894e-05, -1.82456079e-05, -4.25149665e-05,
          -8.52274607e-05, -7.57374728e-05, -2.42518872e-05,
          6.89523877e-05, -1.02075297e-04, -6.58910212e-05,
          -5.11083854e-05, -3.06001421e-05, -6.75012780e-06,
          -1.35018627e-05, -6.78585077e-10, 6.09416675e-05,
          3.96588439e-05, -1.12219850e-05, 8.42817997e-07,
          -5.94154130e-07, 8.98746237e-07, -3.90650348e-06,
          -2.47127173e-06, -3.57769095e-05, -2.69383017e-05,
          -2.87033090e-05, -2.45632164e-05, -2.42158512e-05,
          -6.04494244e-06, 5.83901692e-06, 1.47921883e-05,
          6.20849678e-05, 4.46259264e-06, -8.93470715e-05,
          -3.81384816e-05, -2.58869804e-05, 6.24468566e-06,
          -3.21861953e-05, -5.06110991e-05, -2.84395719e-05 ]
      - [ 1.24053777e-05, -4.31683958e-07, -1.55851812e-05,
          -2.36105170e-05, -1.22232368e-05, -5.51311086e-06,
          -8.53853817e-06, -1.10808642e-05, -1.18885200e-05,
          -1.12964026e-05, -5.69216354e-06, -5.11374128e-06,
          1.57258376e-06, -1.50887161e-06, -4.24704331e-06,
          5.23335757e-06, 4.92427534e-05, -6.50549680e-07,
          -9.35133448e-06, -1.44656051e-05, -2.51495985e-05,
          -1.22375304e-05, -6.72593114e-06, -3.48333765e-06,
          -3.91410413e-06, -1.74725028e-06, -5.48495109e-06,
          -1.29006976e-05, -3.64500629e-05, -4.13008165e-05,
          -1.81203795e-05, 4.60115334e-05, 9.02338070e-06,
          2.39577867e-06, -1.54701263e-06, -3.87147702e-05,
          -4.31097542e-05, -2.81486427e-05, -1.27595649e-05,
          6.33204108e-05, 6.71034650e-05, -1.18561293e-05,
          -4.42839591e-05, -5.42604757e-05, -1.78660066e-05,
          -2.70490068e-06, -1.70113196e-07, 3.77623405e-06,
          -1.28520478e-05, -1.99390633e-05, -1.47670689e-05,
          -1.55241778e-05, -1.03377924e-05, -1.26515733e-05,
          -2.59331136e-05, 2.66487750e-05, 4.61295895e-05,
          -1.98925172e-05, -2.58220571e-05, -1.52776702e-05,
          -1.04634455e-05, -6.93831043e-06, -1.12295620e-05,
          -9.18690603e-06 ]
      - [ -5.36290463e-05, -5.19649802e-05, 2.64856735e-05,
          3.25532710e-06, 7.24493589e-07, 3.96308252e-07,
          -3.88094168e-06, -7.41257873e-06, -2.98298710e-05,
          -9.42032966e-06, 7.62836453e-06, 2.32282264e-06,
          7.98426026e-06, 9.83183327e-06, 1.44689038e-05, 5.49061660e-05,
          -4.72588198e-07, 9.33726915e-06, 1.47278843e-05,
          3.73305193e-06, -2.99514613e-06, -9.51774473e-06,
          -1.30057197e-05, -1.66639111e-05, -2.93988705e-05,
          -1.23346199e-05, -2.77826246e-07, 1.53651229e-06,
          -2.88850551e-05, -3.25023684e-05, -2.04735370e-05,
          4.06588188e-05, 7.55935071e-06, -1.91796898e-05,
          -3.62951432e-05, -3.00031825e-05, -2.23444404e-05,
          -3.41442028e-05, -1.09561861e-05, 8.18730987e-05,
          4.21229415e-05, -8.67889103e-05, -1.45328249e-05,
          -9.00616033e-06, -3.95405408e-07, 8.48450384e-07,
          2.18707601e-06, 6.39223481e-06, -5.04080845e-06,
          -2.59223052e-05, -2.01093735e-05, -2.22489252e-05,
          -1.93519554e-05, -1.96722303e-05, -1.55670696e-05,
          8.05758973e-05, 8.47764022e-05, -5.45101793e-05,
          -6.65696425e-05, -5.72662939e-05, -9.02603279e-06,
          1.58798889e-06, -2.46653258e-06, 3.15914303e-06 ]
      - [ 8.38398337e-05, 1.44826554e-05, -3.41306368e-05,
          -8.81397355e-05, -4.37485614e-05, -4.87301349e-06,
          -3.73645719e-08, -7.54423866e-07, -1.14564646e-05,
          -1.88469858e-05, -1.63516943e-05, -4.11365181e-05,
          -5.84601548e-05, -3.10963296e-05, -5.90340824e-06,
          9.59395038e-05, -4.94758115e-06, -2.70476503e-05,
          -4.52492895e-06, -6.43131398e-06, -4.92349500e-06,
          -1.55648038e-07, 2.26679191e-07, -3.88744820e-06,
          -7.82668667e-06, -1.22343563e-05, -1.47365599e-05,
          3.52437110e-06, -3.72685417e-06, -4.10331268e-06,
          -9.61769365e-06, 1.75152527e-05, -3.51706658e-05,
          -1.07103542e-05, -6.00530120e-06, -4.77842295e-05,
          -4.79683331e-05, -2.59171466e-05, 6.86619114e-06,
          9.13590920e-05, 2.30817350e-05, -2.88268147e-05,
          -8.12259441e-06, -1.03676339e-05, -1.26716222e-05,
          -2.59240296e-05, -1.94498498e-05, -2.23335555e-05,
          -4.61608106e-05, -2.05066208e-05, -7.92805167e-06,
          -1.57511477e-06, 2.60261595e-06, 2.59274748e-06,
          -1.66240955e-06, 4.05660903e-05, -4.27174346e-05,
          -5.67634852e-05, -1.16196725e-05, 1.34790198e-05,
          1.39652993e-05, 4.98789950e-06, 1.24207509e-06, 3.08108065e-06 ]
      - [ 6.58397039e-05, -1.15095445e-05, -3.44533073e-05,
          -5.71302880e-05, -3.21672524e-05, -1.45941685e-05,
          -2.52049667e-05, -2.20517177e-05, -2.08827551e-05,
          -2.86418181e-05, -4.90708862e-06, -1.13263704e-05,
          6.47971638e-06, 3.75410286e-06, -7.06969149e-05,
          2.54908864e-05, 9.52010032e-06, -3.83166080e-05,
          1.52327557e-05, 1.09764615e-05, -5.57986050e-06,
          -1.46479933e-05, -1.28673437e-05, -2.85644946e-05,
          -2.39741948e-05, -2.38751909e-05, -4.10826078e-06,
          -2.67976611e-06, -1.91626459e-05, -4.98993395e-05,
          -5.27411321e-05, 2.28154404e-05, -9.96589188e-06,
          -1.92666757e-05, -2.77125018e-05, -4.69990082e-05,
          -5.73567195e-05, -5.55278166e-05, -1.48712033e-05,
          9.92610949e-05, 7.54158827e-05, -7.90819322e-05,
          -4.49033869e-05, -1.78771861e-05, -2.25537551e-05,
          -1.30316212e-05, -1.18059579e-05, -5.17453918e-06,
          -3.79142830e-06, -2.38015436e-05, -1.30141671e-05,
          -1.39260783e-05, -8.87225542e-06, -1.06209166e-06,
          -4.29143001e-05, 7.70493534e-06, 6.41516235e-05,
          -3.85821877e-05, -4.22849625e-05, -2.87311559e-05,
          -3.13831370e-05, -6.30124123e-06, -2.24499508e-05,
          2.36447590e-06 ]
      - [ 7.11160901e-05, -4.03706908e-05, -6.91799287e-05,
          -5.03894698e-05, -7.89342630e-06, -1.34717993e-05,
          -1.44537298e-05, -1.59512092e-05, -3.84854902e-05,
          -4.44890575e-05, -1.24454482e-05, -1.43393236e-05,
          -3.09945904e-06, -4.01531088e-06, -8.66721803e-06,
          9.71436966e-05, 3.76405187e-05, 2.05735682e-06, 1.19331366e-06,
          2.89616787e-06, -9.43132818e-06, -1.85250774e-05,
          -7.46536216e-06, -5.45919556e-06, -1.70716760e-06,
          -5.94545554e-07, 7.48238699e-06, -1.44883015e-05,
          -4.42208293e-05, -6.01559841e-05, -1.64825033e-05,
          5.62414098e-05, -1.62652650e-05, -3.46759334e-05,
          -4.14030619e-05, -4.84190241e-05, -5.83961373e-05,
          -3.33214230e-05, -1.40203804e-06, 9.63090642e-05,
          5.01073628e-05, -2.60595953e-05, -6.09457038e-06,
          -2.36222659e-05, -2.88947795e-05, -2.13379135e-05,
          -1.16432866e-05, -5.67046663e-06, -5.01780887e-05,
          -2.03800791e-05, -1.20706318e-05, 6.81394113e-07,
          4.98870259e-06, 1.61414227e-05, 8.91130640e-06, 5.27049997e-05,
          -6.28347625e-05, -8.01365313e-05, 1.68375100e-05,
          2.43370669e-05, 1.04363980e-05, -1.03393832e-05,
          -2.28401586e-05, -1.66251139e-05 ]
      - [ -1.98528705e-05, -1.95729590e-04, -1.32499190e-04,
          -1.36888455e-04, -2.83787813e-05, 1.25964143e-04,
          3.37587589e-05, 1.25275019e-05, 2.09479313e-05, 5.39356843e-05,
          4.52092390e-05, -2.25794774e-05, -7.66587254e-05,
          -4.68446478e-06, -2.85275873e-05, -5.48402786e-05,
          1.74410670e-04, 1.01732425e-04, 1.44271267e-04, 6.36547047e-05,
          -8.88532231e-05, -6.77766657e-05, -2.00543436e-05,
          1.53752808e-05, 6.57842538e-05, 2.12784100e-04, 3.18210114e-05,
          -4.41074008e-05, -1.09538843e-04, -8.38761571e-06,
          -3.40477673e-05, 9.36346041e-05, 1.66708269e-04,
          4.63764227e-05, -8.39094355e-05, 9.95460869e-05,
          -1.72138201e-07, 6.88161163e-05, 6.77698554e-05,
          1.28886648e-04, -2.03485397e-05, -1.28825865e-04,
          -5.45849871e-05, 4.48333813e-05, 5.40487599e-05,
          7.33323468e-05, 1.27533291e-04, 2.59782159e-04,
          -1.18564996e-04, -1.39630210e-04, -6.85727864e-05,
          1.17500196e-04, 1.66509984e-04, 8.58370768e-05,
          -5.18738707e-05, -1.51534841e-04, -9.28719383e-05,
          -3.23290697e-05, 3.01263226e-05, 9.11924872e-05,
          1.67133316e-04, 6.03602784e-05, -5.47270429e-05,
          -9.77152886e-05 ]
      - [ -7.23261255e-05, -8.62516390e-05, 2.33678311e-05,
          5.95684542e-05, 2.61373930e-06, -1.54578502e-05,
          -5.07595141e-05, -5.62135683e-05, -6.00118328e-05,
          -1.34205293e-05, 4.34945250e-05, 6.28862181e-05,
          6.54254764e-05, 8.52405574e-05, 6.90117449e-05, 1.92323605e-05,
          -1.22724887e-05, 7.84418735e-05, 9.27118017e-05,
          8.71972079e-05, 7.02318403e-06, -1.68761835e-05,
          -6.39625341e-06, -6.28882390e-06, -9.40106702e-07,
          2.09625432e-05, 1.16184274e-05, -5.29877288e-05,
          -2.21529590e-05, -1.43313318e-05, -1.28240881e-05,
          -2.64392056e-05, -4.10309076e-05, -4.08338747e-05,
          -6.48183486e-05, 7.24377560e-06, 8.51000277e-06,
          4.79189912e-05, 6.07545517e-05, 4.23541724e-06,
          -3.84079294e-06, 3.45272019e-06, 1.28178854e-05,
          3.14277750e-05, 3.24141329e-05, 3.98423945e-05, 3.09361312e-05,
          -3.25841074e-06, -1.43637508e-05, 6.54412247e-07,
          -2.86822069e-06, 2.93860594e-05, 3.23503373e-05,
          7.17011499e-05, 7.63438002e-05, -3.49789734e-05,
          -8.39086933e-05, -3.25419205e-05, 1.03090824e-05,
          3.98169686e-05, 4.73114924e-05, 3.11530152e-06,
          -4.56624184e-05, -5.73706893e-05 ]
      - [ -6.62531384e-05, -2.71516019e-05, 2.90210173e-05,
          2.63740149e-05, 3.97148688e-05, 6.93023821e-06,
          -1.74495035e-05, -2.93306202e-05, -2.62294670e-05,
          -2.14310080e-06, 2.35991265e-05, 3.52759780e-05,
          6.33889067e-05, 1.92898660e-05, -5.42961334e-06,
          -7.07995059e-05, 6.62743405e-05, 8.82297754e-05,
          2.42224887e-05, 6.92468711e-06, -3.33561475e-05,
          -7.65666300e-06, -4.68779808e-06, 7.36626816e-06,
          2.02414685e-05, 5.45604598e-05, 2.44318217e-05, 2.13058615e-06,
          -4.04227103e-05, -2.76573646e-05, -4.01537864e-06,
          3.39264516e-05, 7.88651887e-05, 5.51957055e-05, 4.76536843e-06,
          -6.32521478e-05, -6.77655262e-05, -2.04444386e-05,
          3.59066726e-05, 1.12379435e-04, 9.37586447e-05, 3.66934501e-06,
          -9.16285717e-05, -1.32481844e-04, -4.49587351e-05,
          1.95439698e-05, 3.78659570e-05, 6.72749593e-05,
          -3.40991028e-05, -3.59460755e-05, -4.48925457e-05,
          3.50734481e-05, 3.07195478e-05, -1.62610668e-05,
          -2.76231076e-05, -4.48363207e-05, -1.72129294e-05,
          3.20397376e-05, 1.04411474e-05, 5.73020516e-05, 2.58553664e-05,
          1.61602986e-06, -2.09492573e-05, -2.72050802e-05 ]
      - [ -1.21913225e-04, -7.53709828e-05, 2.53092130e-05,
          6.83592516e-05, 3.12668890e-05, 1.31318584e-05,
          -1.04190565e-06, -3.53452765e-06, -3.45672706e-05,
          -3.98838019e-05, 9.17575744e-06, 3.63424988e-05,
          4.37019298e-05, 5.06490214e-05, 3.86338434e-05, 2.88272822e-05,
          -2.71745539e-05, 8.19094494e-05, 4.08653359e-05,
          5.29213430e-05, 1.35846017e-06, -1.22090623e-05,
          -1.43676480e-05, -1.86722409e-05, -2.38596404e-05,
          2.26743814e-05, 1.97283571e-05, 4.48094506e-05, 9.33740648e-06,
          -7.10263294e-06, -2.65084109e-05, -4.78595466e-05,
          3.89379748e-05, 2.00685481e-05, -5.61234228e-05,
          -2.70049568e-05, -1.69376144e-05, 1.59626343e-05,
          3.13499477e-05, 6.75463525e-05, 2.00922969e-07,
          -3.79578887e-05, -1.11961526e-05, -1.30940716e-05,
          9.92898458e-06, 1.77780112e-05, 1.25383986e-05, 2.94860583e-05,
          1.80041650e-06, -1.36528606e-05, -1.26726472e-05,
          1.86852703e-05, 1.01802270e-05, 1.12900861e-05, 1.49597881e-05,
          -1.87539245e-05, -4.76854939e-06, 3.78208392e-06,
          -1.83604825e-05, -4.52406113e-07, -2.70617443e-06,
          7.36542461e-06, -4.16252897e-06, -1.26703126e-05 ]
      - [ 3.12212323e-05, -2.51825295e-05, 1.86065390e-05,
          -4.54244800e-05, -5.34319406e-05, 1.64506910e-05,
          6.57060184e-07, 5.40540532e-06, -4.33479499e-06,
          -1.98804742e-06, 2.14444844e-05, -3.67124521e-05,
          -6.09185518e-05, 2.97313018e-05, 2.90840162e-05,
          1.91435192e-05, -7.64956349e-05, 3.52081734e-05,
          3.64941079e-05, 7.77622336e-06, 1.17927311e-05, 3.09476782e-05,
          3.16521546e-05, 1.64866124e-05, -4.27416035e-06,
          -1.48140862e-05, -6.46984790e-06, 3.97141157e-05,
          4.91527644e-05, 7.24243000e-05, 9.01770727e-06, 1.49474573e-07,
          3.96508331e-05, 4.66831079e-05, -4.93112748e-06,
          -6.96576026e-05, -6.54662945e-05, 4.63361430e-05,
          8.40886278e-05, 6.19904895e-05, 8.32889145e-06,
          -5.05958269e-06, 1.66086975e-05, -1.45104632e-05,
          -1.44607366e-05, -6.65613197e-06, 9.90820172e-06,
          3.67033317e-05, -3.11827862e-05, -6.20400533e-05,
          -2.67665291e-05, 9.18632140e-05, 6.21292929e-05,
          4.69916085e-05, 4.75551169e-05, 2.31396898e-05,
          -1.37401279e-04, -9.16150893e-05, 2.46407926e-05,
          8.70978911e-05, 9.15474884e-05, 5.33229831e-05, 1.15363200e-05,
          -2.57759602e-05 ]
      - [ -6.07370384e-05, -1.50916894e-05, -1.56026381e-05,
          2.84836242e-05, -2.17656561e-05, -4.68134749e-05,
          -1.03488899e-04, -4.63735305e-05, -5.21692127e-05,
          -2.70616274e-05, -5.80119668e-05, 1.13822425e-04,
          8.70339427e-05, 2.81132416e-05, -1.27123203e-04,
          -1.48945401e-04, -4.01180405e-05, 5.09630663e-05,
          7.90765698e-05, 1.69711697e-04, -1.12708294e-05,
          -1.97501449e-05, -2.99890416e-05, -6.06077665e-05,
          -3.73757530e-06, -5.11626013e-06, 2.71912213e-05,
          8.52526064e-05, 2.54797469e-05, -1.85047120e-05,
          -7.55012661e-05, -6.25320899e-05, 5.45678522e-05,
          -3.51357039e-06, -1.01121841e-04, -7.31918626e-05,
          -1.05390427e-04, -1.55975285e-05, 3.01379459e-05,
          1.00581718e-04, 3.25462242e-05, -6.85057748e-05,
          -3.86959400e-05, -5.10109021e-05, -4.14114147e-05,
          -1.90402880e-05, 3.20886575e-05, 1.10341913e-04,
          -3.19634964e-05, -6.53094976e-05, -6.64208128e-05,
          6.66718479e-05, 1.09996996e-04, 7.10061649e-05,
          -6.24741006e-05, -1.42826422e-04, -7.60826370e-05,
          3.08878552e-05, -1.53212968e-05, -1.84064902e-05,
          -1.62498836e-05, 2.50506146e-05, -4.39842370e-05,
          -5.42342605e-05 ]
      - [ -4.13672933e-05, -5.73725301e-05, -3.54015356e-05,
          1.47219835e-05, 8.26019823e-06, 2.20268726e-06,
          -1.09914672e-05, -1.99297647e-05, -2.41010530e-05,
          -2.58177643e-05, -8.73549197e-06, 1.63019522e-05,
          3.77490178e-05, 5.37289634e-05, 2.50810772e-05,
          -1.03499160e-05, -1.30890221e-05, 4.56702655e-05,
          5.15410284e-05, 5.16416439e-05, -7.83226278e-06,
          -1.62554516e-05, 2.33153787e-06, -1.89933235e-06,
          8.25434836e-06, 1.22959609e-05, 2.70981491e-05, 7.58651140e-06,
          -3.72787326e-05, -2.88215097e-06, -8.16837473e-06,
          -4.89729337e-06, 3.01870805e-05, -6.71209682e-06,
          -3.19154424e-05, -2.65191593e-05, -2.79841461e-05,
          4.05905621e-06, 2.96219241e-05, 2.13220192e-05, 1.08963077e-05,
          4.17730553e-06, -6.71638327e-06, -5.63049161e-06,
          -1.71878983e-05, 2.22950052e-06, 1.31059369e-05,
          2.53861817e-05, -3.78406294e-05, -1.78739774e-05,
          -3.02378749e-06, 4.20627875e-05, 3.67795437e-05,
          6.01459105e-05, 6.83048565e-05, -2.43858858e-06,
          -1.34193120e-04, -8.01679198e-05, 6.35237593e-05,
          7.89039696e-05, 3.91669309e-05, 2.58444888e-05,
          -7.43673490e-06, -4.02001060e-05 ]
      - [ -4.67964819e-05, -5.07705699e-05, 8.03125295e-05,
          8.41187430e-05, 8.15131625e-06, -2.79212109e-05,
          -3.63205399e-05, -4.09942550e-05, -5.18374181e-05,
          -4.28183994e-05, 5.65666096e-06, 7.91233251e-05,
          8.53031088e-05, 7.56036097e-05, 5.38868662e-05, 1.43358866e-05,
          -6.46626868e-05, 1.14195500e-05, 7.59630275e-05,
          4.44094840e-05, 4.53174689e-05, 2.24970177e-06,
          -5.91730941e-06, -1.50558626e-05, -1.14315353e-05,
          -1.28132870e-05, -4.20868133e-07, -3.14338249e-05,
          9.94846778e-06, 2.00872782e-05, 7.63060052e-06,
          -3.76886564e-05, -8.12905055e-05, -6.12681615e-05,
          -4.76354217e-05, -2.70046512e-05, 2.88176561e-05,
          6.61734230e-05, 5.70616685e-05, -2.11749302e-05,
          -1.88719205e-05, 1.69828236e-05, 6.66327560e-06,
          1.32040941e-05, 1.67798007e-05, 2.56207804e-05, 2.20341881e-05,
          -3.59047153e-05, 4.98430654e-06, 3.45336884e-05,
          1.76282392e-05, -2.86014147e-05, -3.35427540e-05,
          1.00368206e-05, 5.22689443e-05, 3.38900900e-05,
          -4.75069501e-05, -4.05031606e-05, 3.56841738e-05,
          -2.16690642e-05, -1.33115564e-05, -2.35521002e-05,
          -1.06057296e-05, -9.97812731e-06 ]
      - [ -7.70420302e-05, 1.41353139e-05, 8.67570852e-05,
          9.00346131e-05, 8.83757530e-05, -1.22785013e-05,
          -3.32436175e-05, -5.15334905e-05, -4.08399828e-05,
          -1.34558222e-05, 7.58057467e-06, 6.53381067e-05,
          1.06230429e-04, 5.47790005e-05, -1.24819735e-05,
          -7.02929028e-05, 2.50783705e-05, -7.13237068e-06,
          1.44682208e-05, 1.28261690e-05, 3.10908240e-06, 9.75942567e-06,
          -3.02934473e-06, 1.70944113e-05, 2.63256902e-06,
          -2.90881758e-06, 5.36929110e-06, 7.43894270e-06,
          1.96898181e-05, 2.60096363e-06, 3.33718199e-05, 1.81305841e-05,
          4.63550641e-05, 5.59141772e-05, 1.18274174e-05,
          -1.31323628e-04, -6.06751164e-05, -4.30739128e-05,
          1.79909312e-05, 8.00023190e-05, 1.34026792e-04, 9.11454190e-05,
          -7.80489136e-05, -1.66310449e-04, -9.51183101e-05,
          -3.51291646e-06, 3.52219104e-05, 2.87533749e-05,
          -4.23048095e-06, 9.44143903e-06, 1.48892582e-06,
          -3.97233543e-06, -2.02293104e-05, -1.26576379e-05,
          3.85772154e-07, -3.90940695e-05, 3.45155422e-05,
          3.49595284e-05, 1.40533793e-05, -1.19090355e-05,
          -1.53402707e-05, 1.71507345e-05, -7.07542040e-06,
          -1.65992933e-05 ]
      - [ -1.03049868e-04, -7.31588370e-05, 6.08415103e-05,
          7.85805605e-05, 2.75696493e-05, 1.99634087e-06,
          -3.66081508e-06, -3.64798666e-06, -3.26483932e-05,
          -4.35633156e-05, 5.02438706e-06, 5.41647059e-05,
          4.80615563e-05, 4.26445331e-05, 3.58504767e-05, 2.23632469e-05,
          -4.56283888e-05, 2.79585856e-05, 3.24764624e-05,
          3.76356620e-05, 3.43776119e-05, 3.93534810e-06,
          -8.88329214e-06, -1.77151833e-05, -3.36760313e-05,
          -1.42318731e-05, 4.34187359e-06, 2.46078562e-05,
          3.97180302e-05, 2.08732708e-05, -7.55331803e-06,
          -6.02749133e-05, 8.26108771e-06, 4.25472217e-06,
          -4.41286538e-05, -4.20225115e-05, 6.48937839e-06,
          1.43966136e-05, 2.49904460e-05, 3.77269607e-05, 5.88978367e-07,
          -2.52034533e-05, -1.33936110e-05, -1.01045835e-05,
          3.91455387e-06, 1.27559333e-05, 1.48892987e-05, 9.37812820e-06,
          1.76177527e-05, 2.83040299e-06, 2.73552496e-06,
          -2.49668155e-05, -1.99923925e-05, 4.53179382e-06,
          2.70113524e-05, 2.05184988e-05, 1.10328492e-05, 1.29809559e-05,
          -7.62356603e-06, -5.42489179e-05, -2.17530924e-05,
          8.74925809e-06, 1.64120283e-05, 1.00467478e-05 ]
      - [ 2.61092846e-05, 5.11096878e-05, 6.82181417e-05,
          -3.03200022e-06, -4.89166632e-05, -8.97838527e-06,
          -8.24158815e-06, -2.77834533e-06, -1.15208113e-05,
          -8.97044902e-06, -2.66008533e-06, -2.28300360e-05,
          1.09077100e-05, 5.89990486e-06, 2.40452864e-05, 2.84304770e-05,
          -1.23719801e-04, -3.87270047e-05, 3.55733682e-05,
          2.79186806e-05, 5.37547967e-05, 3.99375676e-05, 1.40041057e-05,
          -6.81851270e-06, -1.39930098e-05, -3.23285385e-05,
          -5.09499259e-05, 6.73934337e-05, 8.53621386e-05,
          8.98276558e-05, 4.28428712e-06, -4.27848936e-05,
          -3.28896567e-05, 1.94867534e-05, 2.00895574e-05,
          -8.48452473e-05, -7.82778898e-06, 2.93119447e-05,
          3.78281220e-05, 2.08812116e-06, 1.05166964e-05, 3.68774017e-05,
          4.51573287e-05, -2.21319187e-05, -2.00742470e-05,
          -2.38995890e-05, -1.33959056e-05, -3.68599358e-05,
          5.33718139e-06, -2.23982679e-05, -1.70795774e-05,
          2.21394157e-06, -1.40992297e-05, 1.78421396e-05,
          5.91338066e-05, 7.63336357e-05, -8.44633687e-05,
          -8.64632457e-05, 2.47416210e-05, -1.75278801e-05,
          2.23781335e-05, 2.66873903e-05, 4.51150445e-05, 3.63604559e-05 ]
      - [ -5.18658453e-05, 2.69292159e-05, 8.62948436e-05,
          3.42830317e-05, -6.58133285e-06, -9.71882473e-05,
          -1.02406644e-04, -5.22257324e-05, -6.80390294e-05,
          -5.78126746e-05, -2.62985359e-05, 1.11131842e-04,
          1.33613008e-04, 1.67288144e-05, -1.03525388e-04,
          -7.80447735e-05, -1.30201122e-04, -5.62024798e-05,
          5.61028392e-05, 1.17959942e-04, 1.11614492e-04, 5.11865073e-05,
          -4.28407884e-06, -4.03326412e-05, -5.52441452e-05,
          -1.41516808e-04, -4.23800484e-05, 7.58159294e-05,
          1.24524173e-04, 2.19463163e-05, -7.51367088e-06,
          -1.03217200e-04, -5.07501909e-06, -4.15071081e-05,
          -6.03920053e-05, -1.35643961e-04, -4.95552413e-05,
          -2.18757759e-05, -1.14091690e-05, 3.50592636e-05,
          7.77754612e-05, -1.26081868e-05, -2.40940699e-05,
          -4.66363999e-05, -5.54428661e-05, -3.99859455e-05,
          9.24782682e-07, -3.12328240e-07, 4.17242809e-05,
          4.34055437e-05, -1.42485260e-05, -2.39186720e-05,
          -3.38901991e-05, 5.47404925e-05, -1.93635278e-05,
          -8.29121291e-06, 2.67230498e-05, 6.02824257e-05,
          -1.82171316e-05, -9.71285845e-05, -8.89602015e-05,
          -1.18144089e-05, 4.11166729e-05, 8.28882639e-06 ]
      - [ -6.36468030e-05, -2.27396340e-05, 1.92097668e-05,
          4.93796069e-05, 1.74747595e-06, -1.75279765e-05,
          -2.41210128e-05, -3.42235544e-05, -4.56372181e-05,
          -6.66280466e-05, -2.60166416e-05, 4.51555643e-05,
          8.23277951e-05, 7.34042842e-05, 3.82328617e-05, 1.19388361e-07,
          -7.12345209e-05, 2.93043036e-06, 7.50352629e-05,
          4.62956850e-05, 3.46447014e-05, 4.22670701e-06,
          -8.88306147e-07, -7.74882210e-06, -2.11571728e-06,
          -6.13366001e-06, 1.83559205e-05, 4.13004545e-06,
          -4.38585903e-06, 2.60552843e-05, 4.05319361e-06,
          -5.04483214e-05, -2.37247605e-05, -3.25792062e-05,
          -3.15315447e-05, -9.62340491e-05, -1.08065642e-05,
          3.66876739e-05, 3.39419894e-05, 1.12185517e-05,
          -4.37520339e-06, 2.03346590e-05, 2.85168812e-06,
          -1.53797409e-05, -2.46199143e-05, -1.55507660e-05,
          -2.60774482e-06, -2.07540124e-05, -1.80734532e-05,
          1.80609568e-05, 1.00544603e-05, 1.07599126e-05,
          -1.03710199e-05, 2.40817790e-05, 6.34194657e-05,
          1.79491344e-05, -1.36353730e-04, -9.12462856e-05,
          9.20144157e-05, 2.95155005e-05, 1.51488239e-05, 5.34411720e-06,
          -1.93134701e-06, -2.66840543e-05 ]
      - [ -8.40044413e-06, 3.04806217e-05, -4.37840436e-06,
          -2.51639012e-05, 3.24192615e-06, 3.27792094e-07,
          6.28352609e-06, 9.79651668e-06, 1.33271369e-05, 1.63128589e-05,
          -4.78691118e-06, -1.41666796e-05, -4.69631414e-06,
          -1.20827763e-05, -1.91709860e-05, -3.95690113e-05,
          6.21416475e-05, 1.94721852e-05, -2.74759332e-05,
          -1.86455618e-05, -3.79361554e-05, -7.27604970e-07,
          1.79215795e-06, 9.01992098e-06, 2.08441793e-06, 1.70117403e-06,
          4.36728396e-06, 1.44437699e-05, -1.77108814e-05,
          -2.75614038e-05, -4.15353270e-06, 2.73300084e-05,
          5.95251440e-05, 5.95414822e-05, 3.57540557e-05,
          -3.93288756e-05, -6.51480150e-05, -4.88263686e-05,
          -1.76996691e-05, 6.71513189e-05, 7.89425321e-05,
          2.26082375e-05, -7.60567782e-05, -1.03276303e-04,
          -3.79228550e-05, -7.16274553e-06, 1.96243764e-06,
          2.67839696e-05, -9.64865103e-06, -1.69003051e-05,
          -1.13294818e-05, -3.98606380e-06, -1.38187297e-05,
          -2.21378523e-05, -4.91087158e-05, -7.13154623e-06,
          5.48320895e-05, 5.41877889e-05, -9.83651444e-06,
          -7.06482706e-06, -8.41827841e-06, 4.87634770e-06,
          9.39818256e-06, -4.15836666e-06 ]
      - [ -1.68276747e-04, -6.54486066e-05, 5.09643069e-05,
          4.56247835e-05, 4.78587608e-05, 7.32465924e-05, 6.12475269e-05,
          6.93701222e-05, 1.88211402e-06, -3.43056172e-06,
          -2.63514394e-05, 9.42684710e-06, 3.70536577e-06,
          6.38262054e-06, 9.19562444e-06, 2.83700738e-05, 5.38329050e-06,
          3.33113130e-05, -2.05022661e-05, 8.72896726e-06,
          1.01885134e-05, 2.04535081e-05, -6.00147314e-06,
          -4.48250867e-05, -9.97307943e-05, -2.59866465e-05,
          1.18449925e-05, 1.15016417e-04, 4.83100121e-05, 4.38202951e-05,
          -2.07756420e-06, -5.34888859e-05, 1.40355478e-04,
          1.13748887e-04, -6.42025334e-05, -5.56714404e-05,
          -5.58129359e-05, -5.88185212e-05, -3.07273076e-05,
          1.09582339e-04, 2.16707085e-05, -1.04075385e-04,
          -6.32714145e-05, -4.03328850e-05, -4.13139105e-06,
          -3.29858210e-07, 6.59456464e-06, 4.57210663e-05,
          1.54073950e-05, -6.75609408e-05, -6.04597426e-06,
          -3.73959592e-05, -2.17746674e-05, 2.22753260e-05,
          -2.15021773e-05, -1.49983471e-05, 1.31220746e-04,
          7.86101446e-05, -4.08830019e-05, -1.16537325e-04,
          -7.41133917e-05, 3.10532996e-05, 2.93994945e-05,
          1.81206633e-05 ]
      - [ 7.11736138e-05, 5.81662825e-05, -2.65251820e-05,
          -1.05631312e-04, -6.75510746e-05, 2.27002147e-05,
          3.91662688e-05, 5.20756403e-05, 4.52389359e-05,
          -4.77432741e-06, -3.73356561e-05, -8.63165405e-05,
          -9.22955005e-05, -5.99111008e-05, -2.90089793e-05,
          3.23274107e-05, -7.01612225e-05, -6.36742625e-05,
          -2.51087095e-05, -1.44631740e-05, 4.71437397e-06,
          2.68776912e-05, 1.68028982e-05, 4.35673792e-06,
          -1.39288122e-05, -3.21995831e-05, -4.54028923e-05,
          7.14456983e-05, 8.01719798e-05, 6.18107588e-05, 2.27923629e-05,
          -2.50495195e-05, 4.26466759e-05, 7.26240469e-05,
          5.97757607e-05, -3.32129748e-05, -5.65783157e-05,
          -3.81289537e-05, -1.21380945e-05, 2.96426988e-05,
          2.62653830e-05, -1.78227656e-05, 1.68620693e-06,
          -4.36797018e-05, -4.64666409e-05, -4.57712085e-05,
          -4.21163131e-05, -1.70569147e-05, -3.91345020e-05,
          -7.66634985e-05, -7.50938625e-06, 2.24722826e-05,
          9.78613207e-06, -6.39946165e-06, -1.94090790e-05,
          -2.30231453e-05, -3.49535148e-05, -9.11807456e-06,
          -7.33001252e-06, 3.64834923e-05, 4.43340141e-05,
          3.77875840e-05, 5.45112998e-05, 2.74770191e-05 ]
      - [ 5.73482102e-05, 7.14472117e-05, -4.93271982e-05,
          -7.28685482e-05, -2.11209117e-05, 2.34828949e-05,
          1.61297557e-05, 4.25759172e-05, 2.89524978e-05, 4.78598486e-06,
          -4.58571958e-05, -3.52668139e-05, -1.44827864e-05,
          -4.95811510e-05, -1.33205467e-04, -9.69602188e-05,
          -5.94876801e-05, -5.32405065e-05, 1.57732063e-06,
          2.54282349e-05, -1.90626124e-05, -3.55190792e-07,
          -1.63150289e-05, -1.79563631e-05, -1.43410116e-05,
          -3.47611967e-05, 2.14588290e-05, 5.93212353e-05,
          7.02184407e-05, 1.44365958e-05, -3.67828907e-05,
          -5.38612330e-05, 8.05278178e-05, 6.25404282e-05,
          3.85197527e-05, -2.46974323e-05, -7.58044407e-05,
          -8.53516540e-05, -5.08552512e-05, 4.67770915e-05,
          2.75861785e-05, -4.85873425e-05, -4.92907457e-05,
          -5.75698032e-05, -6.02867622e-05, -4.33566165e-05,
          -2.59938006e-05, 2.78845473e-05, 6.57669852e-06,
          -2.25785188e-05, -1.44094365e-05, -2.68673411e-05,
          6.06954291e-06, 1.17197469e-05, -9.92873101e-05,
          -8.51750156e-05, 7.32094195e-05, 7.02059187e-05,
          -3.86128995e-05, -2.27730543e-05, -4.33554596e-05,
          3.08263589e-05, 4.17779556e-05, 2.89837299e-05 ]
      - [ 2.66947427e-05, 2.10131202e-05, -2.00392213e-04,
          -1.12887785e-04, 4.60721094e-05, 9.69106040e-05,
          9.08289076e-05, 6.56376578e-05, -9.61226669e-06,
          -8.54685495e-05, -1.48785024e-04, -1.00060344e-04,
          -4.54512738e-05, -2.18516871e-05, -2.61974747e-05,
          -5.52453894e-05, 1.85892932e-05, 2.34691197e-05,
          -5.65212140e-05, 5.94337962e-06, -8.23089722e-05,
          4.67028394e-06, -1.66050177e-05, 2.55063951e-05,
          1.23615964e-05, 2.71597946e-05, 6.50114962e-05, 1.15926719e-04,
          5.71416786e-05, -1.01136857e-05, -3.36067169e-05,
          1.95674365e-05, 1.53416651e-04, 1.80740710e-04, 3.89974812e-05,
          -1.54907575e-05, -1.65270903e-04, -1.44410253e-04,
          -1.07744854e-04, 2.46579439e-05, 1.06518746e-04,
          9.14978227e-05, -2.35036605e-05, -1.79325158e-04,
          -1.45901082e-04, -1.33420501e-04, -6.77451899e-05,
          1.30700637e-05, -4.39314281e-05, -6.59931611e-05,
          -2.42120541e-06, 1.00230354e-04, 7.67309102e-05,
          2.76953924e-05, -1.56420028e-05, -6.77785720e-05,
          -1.32892121e-04, -3.90645528e-06, 1.55254631e-04,
          1.46418664e-04, 3.43775646e-05, 3.04863788e-05, 8.83455796e-05,
          -1.67422804e-05 ]
      - [ -5.62165624e-05, -7.36845832e-05, -5.77880928e-06,
          7.09075612e-05, 1.66609389e-05, 1.86385223e-05, 1.58981020e-05,
          1.65151814e-05, -3.68050532e-05, -6.03323788e-05,
          -5.12641554e-06, 1.24609596e-05, 7.57210501e-06,
          1.59448991e-05, 2.02156116e-05, 7.51879925e-05,
          -9.27064102e-05, 1.96438978e-05, 3.29432078e-05,
          4.08312480e-05, 5.93389013e-05, -1.58342050e-06,
          -1.30608933e-05, -2.78811367e-05, -4.81574461e-05,
          -1.65198671e-05, 2.60406086e-05, 7.15101778e-05,
          6.72457390e-05, 3.47073874e-05, -1.50838505e-05,
          -9.33849806e-05, -1.08522518e-05, -1.48602076e-05,
          -8.48322816e-05, 5.99402847e-06, 4.59441762e-05,
          3.45324770e-05, 5.55890392e-06, 1.27539852e-05,
          -6.36824843e-05, -6.32348529e-05, 4.86705394e-05,
          9.84127037e-05, 3.09789248e-05, 2.71245881e-06, 1.36181529e-06,
          -5.20911317e-06, 3.98585616e-05, 1.58297371e-05,
          -2.84158705e-06, -4.24402569e-05, -1.48748568e-05,
          3.54319527e-05, 4.14517453e-05, 2.93180528e-05,
          -1.36407562e-05, -1.82785352e-05, -3.85789608e-05,
          -6.65865518e-05, -2.91192155e-05, -8.79297943e-07,
          1.70423755e-05, 2.63322891e-05 ]
      - [ 5.44341565e-05, 1.11412428e-05, -4.13626412e-06,
          -2.21170067e-05, -3.73497169e-05, -3.58919033e-06,
          5.85269754e-06, 1.28839456e-05, 1.07142550e-05, 8.91771379e-06,
          -1.15784837e-06, -4.09850436e-05, -4.34292415e-05,
          -6.69009432e-06, 1.49446159e-05, 3.55901429e-05,
          -6.94125119e-05, -4.42261444e-05, 2.48589254e-06,
          7.25366863e-06, 3.52385614e-05, 2.20449929e-05, 8.77845378e-06,
          -9.91896400e-07, -5.32314061e-06, -1.10479978e-05,
          -3.21494044e-05, 2.48583929e-05, 3.88147237e-05,
          5.35452964e-05, 6.55740723e-06, -2.39921646e-05,
          -3.10088108e-05, -1.48239797e-05, -1.49037487e-05,
          2.51899201e-05, 2.02335377e-05, 3.24200337e-05, 1.29198470e-05,
          -2.56256462e-05, -5.08993580e-05, -2.41328817e-05,
          5.61450943e-05, 8.53469101e-05, 1.16650772e-05,
          -1.58011608e-05, -1.52611246e-05, -2.07870053e-05,
          -2.58590171e-06, -1.38815822e-05, 1.37817979e-05,
          1.49556818e-05, 9.81170888e-06, 1.94831682e-05, 2.59551507e-05,
          3.09525312e-05, -5.39740831e-05, -6.73592731e-05,
          1.83391671e-06, 2.07001285e-05, 2.01258099e-05, 1.45747763e-05,
          1.81439282e-05, 1.70319254e-05 ]
      - [ 6.78308643e-05, 3.51097915e-05, -3.61104139e-05,
          -6.86503263e-05, -7.29994063e-05, -6.81766542e-05,
          -1.91730596e-05, 1.18823345e-05, -1.20713248e-05,
          -6.05209198e-06, -6.20262872e-05, -4.87128782e-05,
          -1.88337544e-05, -1.07852629e-05, -5.96023456e-05,
          -3.25889846e-06, -2.21712136e-04, -1.28406275e-04,
          4.77314316e-05, 1.17202057e-04, 1.07220440e-04, 2.75355414e-05,
          -1.06853759e-06, -4.54521323e-05, -7.01082026e-05,
          -9.95967057e-05, 2.73990972e-05, 8.61885856e-05,
          8.59104111e-05, 9.39999154e-05, -4.97458823e-05,
          -1.40565739e-04, -6.87043939e-05, -9.32918047e-05,
          -1.08154127e-04, 1.41503406e-05, -5.52007975e-07,
          -3.13081800e-05, -3.86607717e-05, -7.70042097e-05,
          -8.13401202e-05, -4.93673651e-05, 4.28395360e-05,
          1.54001289e-04, 3.65287779e-05, -3.48398535e-05,
          -2.42923252e-05, -2.71892986e-05, 6.61533559e-05,
          1.02323487e-04, 5.27728735e-05, 1.20527511e-06, 3.42746971e-05,
          4.07872685e-05, 5.70050997e-06, 3.77464994e-06,
          -2.76724313e-05, -5.22221308e-06, -5.05725402e-05,
          -6.34374883e-05, -4.99346825e-05, -1.31566630e-05,
          1.47595711e-05, 4.90333441e-05 ]
      - [ 2.69126886e-05, -9.20067032e-06, -4.45549413e-05,
          -2.91282817e-07, 3.54748795e-06, 5.83871633e-06,
          8.81077256e-07, -1.28115721e-06, -1.05535528e-05,
          -3.04468322e-05, -2.71658755e-05, 1.15725807e-05,
          -2.27204077e-06, 1.06773650e-05, 1.15539970e-05,
          3.65792475e-05, -5.46646588e-05, -1.69177511e-05,
          3.56248092e-05, 9.74662089e-06, 2.36290234e-05, 4.18371292e-06,
          8.57496525e-06, -5.76181264e-06, 4.22728499e-06,
          1.40491375e-06, 6.76580476e-06, 6.19468892e-06, 1.04421079e-05,
          2.13560725e-05, 1.12291600e-05, -2.84040252e-05,
          -2.66035513e-05, -4.69746083e-05, -5.40090732e-05,
          3.75263771e-05, 3.12291704e-05, 3.53181786e-05, 9.46537239e-06,
          -5.33324746e-05, -7.31532709e-05, -1.20942332e-05,
          7.51798871e-05, 8.05568488e-05, 1.24026601e-05,
          -1.65942001e-05, -1.13390797e-05, -3.04243476e-05,
          -1.33774947e-05, 2.09283080e-05, -2.59026393e-07,
          1.59021656e-05, 2.16977314e-05, 3.35679106e-05, 5.52654164e-05,
          1.64035409e-05, -1.22731319e-04, -7.70794213e-05,
          5.72958525e-05, 3.71944225e-05, 1.52159810e-05,
          -5.88646571e-07, -3.53894734e-06, -7.40754274e-07 ]
      - [ 1.09869259e-04, 6.32108131e-05, -2.43412233e-05,
          -7.43952551e-05, -5.29175231e-05, -1.65893198e-05,
          -2.89310447e-06, 6.02983391e-06, 3.58541802e-05,
          1.96281235e-05, -2.45231899e-06, -3.96044306e-05,
          -5.56249943e-05, -2.94234451e-05, -1.45128824e-05,
          -6.93598577e-06, -2.24684609e-05, -4.70422492e-05,
          -1.45455588e-05, -7.22315508e-06, 9.83415066e-06,
          1.65112597e-05, 1.72537602e-05, 1.48043609e-05, 1.89645907e-05,
          -3.50215464e-06, -2.95068367e-05, -1.03100929e-05,
          1.81668383e-05, 2.89396103e-05, 1.14299692e-05, 1.78700830e-05,
          -1.69317718e-05, 1.21956937e-05, 3.22725282e-05,
          -5.08039784e-06, -1.72792534e-05, -7.97345194e-07,
          4.26810311e-06, -1.42817371e-05, 8.13697807e-06,
          2.88125266e-05, 1.75375644e-05, -2.05138645e-06,
          -1.29668224e-05, -1.58183466e-05, -1.60748805e-05,
          -1.36528615e-05, -1.89301409e-05, -7.00241026e-06,
          9.00947816e-06, 3.04228761e-05, 6.38143729e-06, 3.21946050e-06,
          9.51111542e-06, -1.92352263e-06, -6.05193200e-05,
          -4.57260685e-05, 2.88863193e-05, 4.71929816e-05,
          3.61601669e-05, 1.06615153e-05, 5.24692769e-06,
          -2.37044651e-06 ]
      - [ 1.90103878e-04, 1.49968721e-04, -4.82593205e-05,
          -1.30372413e-04, -6.19716157e-05, -3.50840783e-05,
          -3.16142214e-05, -2.34625913e-05, 2.61749719e-05,
          1.34605552e-05, -4.03200247e-05, -2.58278269e-05,
          -1.10593355e-05, -2.57069914e-05, -1.16392279e-04,
          -1.38507254e-04, -5.41264890e-05, -6.98030053e-05,
          1.03507618e-05, 9.63263756e-06, -2.47223179e-05,
          1.13623273e-05, 1.68620536e-05, -1.19302990e-06,
          2.93716876e-05, -1.04835917e-05, -2.11500992e-05,
          6.33721947e-06, -1.64544017e-05, 2.49541408e-05,
          -2.94982656e-05, 3.16347064e-06, -3.04462574e-05,
          -4.68748513e-05, 3.09775387e-05, 1.83154298e-05,
          -1.52906487e-05, -1.87221613e-05, -3.14718345e-05,
          -5.50564218e-05, 8.57799296e-06, 3.30246767e-05,
          1.17287516e-06, -1.90343253e-05, -2.15469518e-05,
          -4.14566530e-05, -1.71113461e-05, -3.66082459e-05,
          -1.97682893e-05, 3.49582515e-05, 1.39952377e-07,
          3.20375548e-05, 2.87574730e-05, 1.16181818e-05,
          -9.26108260e-05, -5.68349060e-05, -2.05916967e-05,
          5.40571955e-06, 2.03013242e-05, 3.89068227e-05, 2.40896406e-05,
          2.49695381e-06, -2.15577402e-05, 4.75290699e-06 ]
      - [ 1.05300176e-04, 5.81707463e-05, -7.10190798e-05,
          -5.19079149e-05, -1.13404876e-05, -6.17325168e-06,
          -4.72931606e-06, -1.08315608e-05, 2.95250647e-05,
          -7.37009532e-06, -3.05387184e-05, -1.28340889e-05,
          -8.45855084e-06, -5.60900889e-06, -1.38791002e-05,
          -1.92130537e-05, -6.14818646e-06, -1.33561116e-05,
          -1.30269768e-06, -1.54371228e-05, -6.32687033e-06,
          -7.25050950e-06, 1.28786469e-05, 1.83631182e-05,
          4.31198059e-05, 1.28220836e-05, 1.83975567e-06,
          -2.65109538e-05, -2.33341707e-05, -1.15001767e-05,
          2.22192357e-05, 3.56031851e-05, -2.82415222e-05,
          -1.46032935e-05, 2.68845852e-05, 8.03457169e-06,
          8.84784185e-06, -5.96356722e-06, -5.94510720e-06,
          -3.98771917e-05, 2.78065772e-06, 5.67382522e-05,
          2.89337077e-05, -1.52813373e-05, -2.23299412e-05,
          -1.74133911e-05, -1.10944675e-05, -1.92998923e-05,
          -3.21673033e-05, 1.37583338e-05, 4.60220872e-06,
          3.73621915e-05, 1.83698594e-05, 1.63618006e-05, 1.93794021e-05,
          -1.59323663e-05, -1.24242113e-04, -4.16877992e-05,
          7.33731649e-05, 9.36846118e-05, 2.48298256e-05,
          -2.92449317e-06, -9.67716460e-06, -1.93227861e-05 ]
      - [ -2.38489301e-05, 6.80752146e-06, -1.35104829e-05,
          2.55646937e-05, 4.48241117e-05, -2.38918346e-05,
          -5.12499391e-05, -2.66045045e-05, -2.33504306e-05,
          -2.41100133e-05, -1.85255667e-05, 9.54568968e-05,
          1.12293645e-04, -1.76175399e-05, -1.18188720e-04,
          -1.03199745e-04, 3.72285140e-05, 1.19320157e-06,
          4.69413681e-05, 5.95299643e-05, -3.02945955e-05,
          -3.51054514e-05, -2.97380193e-05, -2.44238090e-05,
          -1.11630088e-05, -9.96237941e-06, 3.76588468e-05,
          1.73131193e-05, -1.85519693e-05, -8.27859840e-05,
          -5.31390870e-05, -4.11544170e-05, 7.19806349e-06,
          -2.67092655e-05, -3.88627086e-05, 1.15117609e-05,
          -2.59928893e-05, -4.18772324e-05, -4.02319056e-05,
          9.04305853e-06, 1.10129013e-05, -2.43670838e-05,
          -5.34030805e-05, -3.44875916e-05, -6.20436185e-06,
          1.76870399e-05, 4.62664502e-06, 2.50057819e-05, 2.38803968e-05,
          3.43389183e-05, -3.42445310e-06, -3.35606273e-05,
          3.47849800e-06, 2.85375409e-05, -5.02235562e-05,
          -9.60221660e-05, 9.59898243e-05, 8.76107006e-05,
          -3.66718341e-05, -4.51588639e-05, -7.47808881e-05,
          -2.51305864e-05, -2.75414113e-05, 7.55301153e-06 ]
      - [ -8.99207007e-05, -1.04035382e-04, 1.72624186e-05,
          -5.32708827e-06, 1.25165723e-04, -1.66654390e-05,
          -3.80740421e-05, -5.63400718e-05, -9.86517553e-05,
          2.16286244e-05, 3.50195660e-05, 1.69684688e-04, 2.66868941e-04,
          1.03516701e-04, -5.51950434e-05, -9.79753022e-05,
          9.63535058e-05, 8.80180014e-05, 6.70855079e-05, 7.49946557e-05,
          -2.41791495e-05, -9.11373209e-05, -4.99894486e-05,
          -9.20335333e-06, -1.57113227e-05, 5.72268691e-05,
          1.19379292e-04, -1.30871093e-04, -2.05838645e-04,
          -1.71311040e-04, -6.00721032e-05, 6.87460488e-05,
          6.93258335e-05, -5.25645009e-05, -9.37473742e-05,
          3.79637669e-07, -3.45311346e-05, -7.77292807e-05,
          -2.54329316e-05, -3.36649973e-05, 9.72660055e-05,
          5.20497670e-05, 3.81411373e-05, -1.61005482e-05,
          -8.13044062e-06, 7.41722979e-05, 3.05058602e-05,
          1.24133629e-04, 4.29946376e-05, 1.60270778e-04, 1.93344786e-05,
          8.04142655e-06, 1.22092251e-06, -7.46258866e-06,
          4.83061121e-05, 5.47001182e-05, -7.96130189e-05,
          -1.80058487e-05, 7.59014001e-05, -2.72811803e-06,
          -4.67514474e-05, -8.89319272e-05, -1.63630510e-04,
          -9.52103073e-05 ]
      - [ -4.85168384e-05, -4.34653266e-05, -4.36027331e-05,
          2.07209450e-05, 3.15962279e-05, 2.42845435e-05, 3.39802064e-05,
          -1.02699332e-05, -2.13602129e-06, -3.48668436e-05,
          -1.88891572e-05, -1.03471257e-05, -8.88632371e-07,
          5.63478898e-05, 1.08250701e-04, 7.09017986e-05, 3.01199034e-05,
          6.35978431e-05, 4.61515583e-06, -3.90637470e-05,
          -3.44821383e-05, -1.23489390e-05, 6.52746758e-06,
          2.39769361e-05, 2.82360324e-05, 4.75452944e-05, 2.38162047e-05,
          -4.22641424e-05, -7.68581012e-05, -8.93893230e-06,
          5.01828363e-05, 7.50362378e-05, 1.06924794e-07, 7.26092276e-06,
          -2.39775509e-05, 9.80860023e-06, 1.02244776e-05,
          1.41272831e-05, 1.64165358e-05, -1.43761026e-05,
          1.69242594e-05, 3.00046631e-05, 4.79372829e-05, 2.37879044e-06,
          -2.14927641e-05, -6.29957322e-06, 1.26911373e-05,
          -1.36087092e-05, -6.32720621e-05, 2.30623937e-06,
          -1.23777886e-06, 3.12213560e-05, 1.85280569e-05,
          1.88569320e-05, 6.95972340e-05, 7.86416349e-05,
          -1.71207284e-04, -1.10752000e-04, 9.94147340e-05,
          1.10639325e-04, 6.62849634e-05, 1.05422293e-06,
          -1.91410891e-05, -6.85842533e-05 ]
   uncompressed_sv_total: 1164
   uncompressed_support_vectors:
      - [ 1.82328979e+03, 6.99231641e+03, 6.15048193e+03, 9.49210205e+01,
          0., 0., 0., 0., 1.66695239e+03, 5.44141541e+02, 9.39229492e+02,
          5.87799255e+02, 1.89452161e+03, 7.40270233e+01, 0.,
          8.40951843e+01, 2.06372656e+03, 0., 0., 0., 1.25833789e+03,
          1.26488477e+03, 1.58656299e+03, 3.26000879e+03, 3.35767188e+03,
          3.34104767e+02, 0., 0., 3.01366748e+03, 3.41279492e+03,
          2.71638257e+03, 6.03509668e+03, 0., 8.48646011e+01, 0.,
          2.02164087e+03, 2.00360229e+03, 2.06115039e+03, 5.87192285e+03,
          2.08368164e+03, 3.90710669e+03, 4.56508484e+01, 8.28009644e+01,
          0., 1.57695908e+02, 1.63372131e+03, 2.70614990e+03, 0.,
          1.77002823e+02, 1.32094873e+03, 1.20565137e+03, 2.94410986e+03,
          0., 0., 2.48007355e+02, 4.56283057e+03, 3.88305151e+03,
          3.01871094e+03, 2.16267578e+03, 3.07973242e+03, 1.68087769e+03,
          3.03772552e+02, 1.76713965e+03, 5.02419043e+03 ]
      - [ 9.15786719e+03, 4.57765259e+02, 9.53748840e+02, 0., 0., 0., 0.,
          0., 0., 0., 0., 0., 0., 0., 1.41421354e+00, 9.40850677e+01,
          4.32113867e+03, 2.82842708e+00, 0., 0., 0., 0., 0., 0., 0., 0.,
          0., 0., 0., 8.53319214e+02, 1.69020422e+03, 6.44646875e+03,
          1.42351685e+02, 1.69705620e+01, 0., 5.15460938e+02,
          1.12545300e+03, 1.38181860e+03, 1.82376770e+03, 2.07002411e+02,
          8.12240527e+03, 6.81643906e+01, 0., 0., 0., 0., 0.,
          2.73806488e+02, 0., 0., 0., 0., 0., 0., 0., 9.54800879e+03,
          2.92126392e+03, 7.84095825e+02, 5.71002747e+02, 1.29778918e+03,
          0., 1.82023059e+03, 0., 0. ]
      - [ 1.59236279e+03, 9.88480896e+02, 6.58826843e+02, 1.88281708e+02,
          0., 0., 0., 0., 0., 0., 0., 0., 0., 0., 2.72643700e+01,
          4.38279395e+03, 5.63161230e+03, 4.35601158e+01, 0., 0., 0., 0.,
          0., 0., 0., 0., 0., 0., 3.28892090e+02, 7.60799866e+02,
          3.60027222e+02, 1.87136865e+03, 0., 0., 0., 0., 1.69168549e+02,
          6.63601135e+02, 1.15458496e+03, 4.11372119e+03, 1.86080347e+03,
          0., 0., 0., 0., 0., 0., 0., 5.50272675e+01, 0., 1.16275536e+02,
          0., 0., 0., 3.00546295e+02, 2.02033789e+03, 4.73823486e+03,
          1.22175024e+03, 7.86392883e+02, 3.36965881e+02, 0., 0., 0., 0. ]
      - [ 4., 1.02392535e+03, 4.49208594e+03, 3.57332959e+03,
          3.43407074e+02, 0., 0., 0., 0., 1.45728003e+03, 3.18221826e+03,
          1.49611475e+03, 4.86557281e+02, 1.16911194e+03, 8.54396973e+02,
          1.69840283e+03, 14., 8.26109985e+02, 1.18608337e+03,
          4.39752197e+03, 3.61137036e+03, 5.32730713e+02, 0., 0.,
          4.71349121e+02, 3.06414764e+02, 5.58907959e+02, 1.69899146e+03,
          3.06001978e+03, 3.38560254e+03, 3.72832422e+03, 1.49337219e+03,
          2.78619946e+03, 0., 1.82131821e+02, 0., 2.45668481e+03,
          2.46457788e+03, 2.76051465e+03, 3.95643970e+03, 1.38107471e+03,
          0., 0., 1.47542920e+03, 7.10598816e+02, 0., 7.43312866e+02,
          1.89416577e+03, 0., 1.11991577e+03, 2.18009912e+03,
          1.43161462e+03, 5.70190613e+02, 1.50993604e+03, 9.94992310e+02,
          1.12382007e+03, 1.37560938e+03, 4.52594775e+03, 4.63146094e+03,
          3.32393237e+03, 14., 7.30349243e+02, 4.84487366e+02,
          1.02873059e+03 ]
      - [ 22., 4.90447900e+03, 1.37841125e+03, 7.16420947e+03,
          7.16044678e+02, 0., 0., 0., 0., 0., 0., 5.02819238e+03,
          2.33323804e+03, 9.69439941e+02, 1.01638354e+03, 3.14327588e+03,
          2.35372047e+01, 1.01372717e+03, 1.38134644e+03, 2.43058374e+03,
          4.79810400e+03, 1.55331909e+02, 5.65685415e+00, 0., 0., 0., 0.,
          2.99132886e+03, 6.18336426e+03, 2.22054492e+03, 2.32931543e+03,
          3.16622803e+02, 6.33823120e+02, 5.96893616e+02, 0.,
          3.84540552e+03, 1.39341956e+03, 5.64348145e+03, 3.57663428e+03,
          2.29201123e+03, 3.07066113e+03, 0., 3.24776855e+02,
          3.50610449e+03, 9.70386536e+02, 1.26104993e+03, 5.96657372e+01,
          0., 1.32507751e+03, 3.00178809e+03, 2.99741113e+03,
          2.31980054e+03, 0., 0., 1.74456848e+02, 1.19303186e+03,
          2.70433521e+03, 4.57285840e+03, 6.64425781e+03, 3.94092651e+03,
          0., 5.58512329e+02, 0., 8.07218689e+02 ]
      - [ 1.57733536e+02, 1.03162402e+03, 6.08449609e+03, 3.25479468e+03,
          0., 2.54007874e+02, 1.60112457e+02, 0., 5.13279663e+02, 0., 0.,
          1.98100879e+03, 7.46300232e+02, 1.29815320e+03, 1.19832703e+02,
          3.88655151e+02, 1.45094531e+03, 1.74624847e+02, 1.34493359e+03,
          3.23600269e+03, 2.87043549e+02, 4.89264740e+02, 0., 0.,
          2.82931091e+02, 0., 4.17427429e+02, 2.39210278e+03,
          5.72918018e+03, 1.80233582e+03, 5.17661072e+02, 9.00480713e+02,
          0., 0., 3.46101135e+02, 1.10016089e+03, 1.58700403e+03,
          2.22831006e+03, 7.87741882e+02, 3.88870148e+02, 7.54387512e+02,
          8.66715942e+02, 3.46725928e+03, 2.67327515e+02, 0., 0.,
          5.89606628e+02, 2.65047180e+02, 0., 0., 3.48402069e+02,
          1.88118884e+03, 3.26272852e+03, 2.39751563e+03, 5.37057556e+02,
          1.36610828e+03, 0., 3.02081836e+03, 2.09158301e+03,
          1.93752637e+03, 2.14409106e+03, 1.48906042e+03, 6.52386414e+02,
          0. ]
      - [ 1.90196643e+03, 1.33221204e+03, 2.70823926e+03, 3.14155737e+03,
          1.32245288e+03, 5.33104134e+01, 0., 0., 0., 0., 0., 0., 0.,
          2.70692798e+03, 5.62829468e+02, 2.25634506e+02, 3.62626526e+02,
          8.10863647e+02, 0., 2.59212769e+03, 4.39294891e+02,
          2.58069763e+01, 0., 0., 0., 0., 0., 1.06327795e+03,
          3.13680957e+03, 4.33144092e+03, 1.35513037e+03, 3.97893646e+02,
          0., 2.16480942e+02, 8.50931274e+02, 2.89084778e+02, 0.,
          4.14185791e+03, 2.12537329e+03, 0., 3.26207178e+03,
          2.64121875e+03, 8.04732239e+02, 0., 4.75394554e+01,
          8.44037903e+02, 2.54031494e+02, 1.29619116e+03, 0.,
          1.38332788e+03, 6.61177734e+02, 0., 0., 0., 4.18897412e+03,
          2.18834985e+03, 1.11922656e+03, 2.39678735e+03, 2.18695630e+03,
          1.52187305e+03, 0., 0., 2.17881982e+03, 1.40724231e+03 ]
      - [ 0., 9.17872253e+02, 6.21706982e+03, 3.87895288e+03, 0., 0., 0.,
          0., 6.07791077e+02, 1.31952722e+03, 0., 0., 0., 0., 0., 0.,
          24., 1.04912085e+03, 8.10724365e+02, 9.80659058e+02,
          3.65816803e+02, 8.20210938e+02, 6.49707642e+02, 0.,
          1.97909073e+02, 0., 5.09929962e+01, 3.31051929e+03,
          6.04075977e+03, 2.51813403e+03, 8.84591492e+02, 4.79305084e+02,
          340., 1.82839771e+03, 1.43442480e+03, 1.32037073e+03,
          3.24616699e+02, 6.33506653e+02, 4.03700012e+02, 2.06021094e+03,
          4.59772412e+03, 5.11640228e+02, 5.00919159e+02, 2.19317123e+02,
          0., 0., 3.04105255e+02, 1.62205176e+03, 8.31155212e+02,
          7.82943176e+02, 8.56191528e+02, 0., 1.38940625e+03, 0.,
          3.22498749e+02, 5.40139014e+03, 2.79734277e+03, 3.07144263e+03,
          3.50570953e+02, 1.25150110e+03, 0., 1.12737378e+03,
          2.80763306e+03, 3.39043506e+03 ]
      - [ 1.00071765e+03, 8.93004089e+02, 8.34827209e+02, 8.47074023e+03,
          0., 1.47248093e+02, 5.57096069e+02, 0., 6.41169250e+02,
          4.16662933e+02, 1.50586926e+03, 2.83975342e+02, 1.45640332e+03,
          4.96082910e+03, 2.60008154e+03, 3.82099457e+01, 0.,
          8.40391785e+02, 9.22295801e+03, 0., 0., 0., 0., 0., 0., 0.,
          6.48154297e+02, 4.62148389e+03, 2.39022729e+03, 2.16872437e+03,
          7.37476990e+02, 6.58438049e+02, 0., 0., 0., 3.23257983e+03,
          3.65336572e+03, 3.75230835e+03, 8.76479553e+02, 1.07703295e+01,
          1.18515344e+03, 1.41447742e+03, 2.68751685e+03, 2.80729858e+03,
          9.06714966e+02, 1.03469803e+02, 0., 0., 1.27720630e+03,
          3.12028839e+02, 3.21773511e+03, 1.96086716e+02, 2.49839951e+02,
          3.80184399e+03, 1.34635657e+03, 7.74740173e+02, 1.82225964e+03,
          5.74350891e+02, 9.65683887e+03, 0., 0., 2.29577930e+03,
          2.15132523e+02, 0. ]
      - [ 3.99456055e+03, 3.01577661e+03, 4.07533936e+02, 5.19230194e+01,
          4.84484955e+02, 5.67543823e+02, 0., 1.70073975e+03,
          2.05772778e+03, 4.97298706e+02, 0., 0., 0., 0., 9.21303406e+01,
          2.79285181e+03, 1.17316956e+02, 4.33292053e+02, 1.42659924e+03,
          0., 0., 0., 3.69670135e+02, 1.94484424e+03, 0., 0., 0., 0.,
          1.01457166e+03, 2.44469946e+03, 3.50052124e+03, 3.65752319e+03,
          0., 1.24024341e+03, 2.75779199e+03, 2.06879980e+03,
          5.26251404e+02, 1.26073694e+03, 8.37347534e+02, 1.08174939e+03,
          0., 2.77417285e+03, 5.53501709e+03, 5.03626831e+02, 0.,
          2.69072475e+01, 2.52733063e+02, 1.61505417e+02, 0.,
          6.14706421e+02, 3.25358276e+02, 0., 4.05101953e+03,
          3.28560547e+03, 1.51177966e+03, 7.81793640e+02, 4.89033691e+02,
          8.35035583e+02, 2.01591040e+03, 5.58366943e+03, 4.23709808e+02,
          0., 9.39329834e+02, 0. ]
      - [ 1.36122424e+03, 1.00097125e+03, 1.17528857e+03, 6.95078711e+03,
          0., 5.48884338e+02, 0., 5.55308899e+02, 6.66357239e+02,
          7.34025879e+02, 4.49177032e+02, 0., 1.57738391e+03,
          2.48008984e+03, 1.73911975e+03, 2.03144971e+03, 3.44612134e+03,
          2.35341980e+02, 1.12273730e+03, 3.85320374e+02, 1.83824878e+03,
          1.41531091e+03, 1.29677026e+03, 0., 0., 7.60959900e+02,
          1.45428882e+03, 4.99075134e+02, 2.23623462e+03, 3.66742114e+03,
          2.24734741e+03, 2.33596216e+03, 0., 0., 0., 7.01309814e+03,
          4.45355029e+03, 4.04477905e+03, 2.13717163e+03, 0.,
          1.87822412e+03, 1.76578979e+03, 1.26849121e+03, 3.78464282e+03,
          2.34114307e+03, 1.47854834e+03, 0., 0., 0., 6.81175476e+02,
          1.86823962e+03, 2.19039014e+03, 7.39744629e+02, 1.06826965e+02,
          1.47205725e+03, 4.20050146e+03, 1.37950085e+03, 3.30108203e+03,
          5.04211084e+03, 3.28810107e+03, 1.81529041e+03, 1.00887177e+03,
          1.74801929e+03, 1.15662085e+03 ]
      - [ 7.63040723e+03, 1.29913171e+03, 4.43740906e+02, 0.,
          8.90505447e+01, 3.17493317e+02, 0., 5.19249451e+02,
          1.25483997e+03, 0., 0., 0., 0., 0., 0., 0., 4.14337891e+03,
          5.21536179e+01, 2.93410980e+02, 3.17067810e+02, 3.69962158e+02,
          0., 5.00119995e+02, 3.16925873e+02, 5.54993713e+02, 0.,
          4.30685486e+02, 1.41087292e+03, 1.36382239e+03, 1.67330823e+03,
          4.14283203e+02, 3.49887573e+03, 0., 0., 1.36044653e+03,
          9.18486206e+02, 1.91798608e+03, 1.55175806e+03, 1.37208069e+03,
          1.96055945e+03, 3.96808423e+03, 3.39705772e+01, 0.,
          3.47867798e+02, 0., 0., 0., 1.54051941e+02, 0., 4.41714844e+02,
          7.27582703e+02, 9.54625977e+02, 6.28211731e+02, 26.,
          1.69705620e+01, 1.80857678e+03, 1.62068628e+03, 3.11517871e+03,
          3.99021045e+03, 1.95707532e+03, 7.74202271e+02, 0., 0., 0. ]
      - [ 1.47997314e+03, 7.42398828e+03, 0., 0., 0., 0., 0., 0.,
          5.95484680e+02, 2.00479846e+03, 0., 0., 0., 0., 0., 0.,
          1.26600793e+03, 0., 5.30094337e+01, 5.00575684e+02,
          7.48913879e+02, 8.26345093e+02, 0., 8.24937561e+02,
          1.25017017e+03, 0., 8.40951843e+01, 0., 8.62708496e+02,
          2.48769971e+03, 3.45891333e+03, 1.65052905e+03, 314.,
          2.67907471e+03, 1.49897668e+03, 1.20850415e+03, 9.62517395e+02,
          8.63912598e+02, 1.06770667e+03, 5.78910889e+02, 1.72119116e+03,
          6.15505322e+03, 0., 0., 1.64754364e+02, 0., 0., 0.,
          1.60374414e+03, 2.14305786e+03, 1.83046716e+03, 6.35504517e+02,
          2.12132034e+01, 0., 9.66108948e+02, 1.55099707e+03,
          5.85638965e+03, 1.62992432e+03, 3.33874573e+02, 1.25091565e+03,
          3.80644165e+03, 0., 0., 0. ]
      - [ 3.03126465e+03, 8.30653223e+03, 1.22888428e+03, 0.,
          1.09178749e+02, 2.88922150e+02, 7.79333069e+02, 0.,
          8.06972107e+02, 5.54032471e+02, 8.56301880e+02, 0., 0., 0., 0.,
          0., 4.11231494e+03, 1.94947067e+02, 1.32378250e+02, 0.,
          1.17846985e+03, 8.04617920e+02, 0., 7.16672852e+02,
          3.35090479e+03, 1.03889258e+03, 5.11018341e+02, 2.03432922e+03,
          1.41309204e+03, 2.00284668e+03, 3.20101416e+03, 1.25425684e+03,
          0., 3.80788651e+01, 1.69957349e+03, 1.22634229e+03,
          4.02550220e+03, 3.49840918e+03, 6.73172974e+02, 1.73078018e+02,
          2.07179761e+03, 4.11338037e+03, 1.30937439e+03, 0., 0., 0., 0.,
          0., 1.90841003e+03, 8.07605103e+02, 9.41431641e+02,
          1.08216309e+03, 0., 1.13565894e+03, 2.84034790e+03,
          1.68367505e+03, 2.97077606e+02, 3.38681812e+03, 3.39908203e+03,
          1.17469189e+03, 2.90444580e+03, 1.81408264e+03, 6.66539001e+02,
          8.59069290e+01 ]
      - [ 1.86945459e+03, 1.53724170e+03, 2.68566260e+03, 6.71420313e+03,
          0., 0., 0., 0., 1.58050629e+02, 1.26577856e+03, 5.14667090e+03,
          0., 5.26411377e+02, 0., 0., 1.51651416e+03, 7.13041553e+03,
          2.27739600e+03, 0., 0., 0., 0., 0., 0., 100., 6.73167786e+02,
          1.18290027e+03, 6.03035645e+02, 1.42618604e+03, 1.09060547e+03,
          1.21364038e+03, 4.40601776e+02, 9.03966797e+02, 7.87078125e+02,
          4.45113678e+01, 3.54984814e+03, 1.83301392e+03, 2.48810986e+03,
          1.84638562e+03, 4.69896332e+02, 5.46561963e+03, 2.58759499e+01,
          0., 0., 9.05075684e+02, 1.68796851e+03, 8.05243652e+02,
          1.34030713e+03, 2.89967236e+03, 1.84160669e+03, 0., 0., 0., 0.,
          0., 0., 8.03384863e+03, 7.49789355e+03, 5.67274170e+01, 0., 0.,
          0., 0., 3.23109894e+01 ]
      - [ 1.58170361e+03, 7.94488525e+02, 1.16635193e+03, 4.59651416e+03,
          1.72521704e+03, 5.56424316e+02, 0., 1.00019997e+02,
          6.61018921e+02, 0., 1.02849036e+03, 7.72347046e+02, 0.,
          3.84668701e+02, 4.27557031e+03, 5.71917175e+02, 4.27285400e+03,
          8.14212341e+02, 0., 0., 6.28033447e+02, 0., 0., 4.88466980e+02,
          3.57404541e+02, 0., 9.54285156e+02, 4.93234222e+02,
          1.51056396e+03, 1.46117603e+03, 1.98415723e+03, 4.99080469e+03,
          7.04911316e+02, 0., 3.35002148e+03, 1.34348059e+03,
          3.15537781e+02, 1.38554602e+03, 1.42328040e+03, 1.68785767e+03,
          6.16243359e+03, 8.57752808e+02, 0., 0., 0., 6.85022644e+02, 0.,
          8.21485718e+02, 9.13756531e+02, 0., 6.50072327e+02, 0., 0., 0.,
          4.42962097e+02, 5.60910254e+03, 2.09680249e+03, 4.22384863e+03,
          1.42339209e+03, 1.53772131e+03, 4.52283112e+02, 5.83486084e+02,
          0., 1.23320717e+02 ]
      - [ 7.48615234e+02, 1.22595581e+03, 1.86183411e+03, 0., 0.,
          3.27061584e+02, 5.92030396e+02, 0., 4.90163239e+02, 0.,
          3.90366486e+02, 0., 0., 0., 2.89040894e+03, 1.43608215e+03,
          2.72053442e+03, 1.24953308e+03, 3.48252380e+02, 0., 0.,
          7.59216919e+02, 0., 0., 4.89938782e+02, 3.74157715e+02, 0., 0.,
          1.33191052e+03, 7.50098389e+02, 8.82906921e+02, 1.16953857e+03,
          0., 4.02715790e+02, 2.32331665e+02, 1.94742639e+03,
          2.09785571e+03, 2.78828394e+03, 2.58036230e+03, 1.61300964e+02,
          1.00623047e+03, 3.59401428e+02, 7.83832214e+02, 3.09155811e+03,
          1.10553856e+01, 1.25847610e+02, 0., 0., 0., 9.07704102e+02,
          6.29669312e+02, 8.17089966e+02, 1.36476367e+03, 0.,
          1.01845575e+03, 1.83608887e+03, 1.20031055e+03, 1.27423193e+03,
          3.34792920e+03, 3.54971021e+03, 2.46032516e+02, 2.38461731e+02,
          4.17480530e+02, 4.43990997e+02 ]
      - [ 2.05216870e+03, 1.80113086e+03, 1.33634448e+03, 1.53522168e+03,
          0., 0., 3.90082031e+02, 1.23702222e+03, 7.37411682e+02, 0.,
          6.69932861e+02, 0., 4.61735840e+01, 7.46324310e+01,
          1.04187524e+03, 3.62825098e+03, 4.95644629e+03, 1.82101563e+03,
          0., 0., 0., 3.17568878e+02, 0., 0., 0., 4.35855469e+02, 0.,
          3.18562408e+02, 5.25023804e+02, 2.08637354e+03, 2.20593823e+03,
          1.86324060e+03, 7.76367432e+02, 0., 1.46124377e+03, 0.,
          1.74568628e+03, 3.62434229e+03, 1.88420325e+03, 1.68242090e+03,
          2.11523999e+03, 8.94134033e+02, 0., 0., 1.11515283e+03,
          3.60347046e+02, 2.70795135e+02, 2.59383881e+02, 0.,
          6.88042847e+02, 0., 5.00977051e+02, 6.62004517e+02,
          4.38634262e+01, 5.10144836e+02, 3.83010522e+03, 2.34520142e+03,
          4.70938428e+03, 2.36491089e+03, 5.54083008e+02, 1.50870593e+03,
          0., 3.65058899e+02, 0. ]
      - [ 0., 5.22260107e+03, 7.00526172e+03, 0., 9.09157837e+02,
          7.24506348e+02, 4.40440674e+02, 1.06938647e+03, 0., 0.,
          1.76586169e+03, 4.09375122e+02, 0., 6.42572937e+02,
          1.75562451e+03, 2.01067310e+03, 3.35838672e+03, 8.46007538e+01,
          0., 0., 3.58652100e+02, 7.86883728e+02, 8.03674072e+02,
          5.28715454e+02, 1.47286890e+03, 1.08379517e+03, 6.42966187e+02,
          1.59286865e+03, 5.04400635e+02, 3.70841479e+03, 3.89891309e+03,
          4.83648242e+03, 7.22174500e+02, 5.54676453e+02, 1.62298975e+03,
          3.38085864e+03, 1.89404150e+03, 4.35348193e+03, 2.58070557e+03,
          6.23325684e+02, 2.45355225e+03, 3.23223560e+03, 8.26119873e+02,
          1.56801074e+03, 0., 5.76425171e+02, 4.04200439e+02, 0.,
          1.21798010e+03, 1.09857568e+03, 1.41015820e+03, 1.46730054e+03,
          0., 0., 3.24942554e+03, 2.28785156e+03, 2.11038306e+03,
          2.98768799e+03, 7.33620703e+03, 1.46462622e+03, 1.80321875e+03,
          6.24872803e+02, 9.18897156e+02, 3.34080841e+02 ]
      - [ 1.65073120e+03, 2.28092822e+03, 5.76988086e+03, 2.41770776e+03,
          3.82413391e+02, 0., 0., 0., 1.04821375e+03, 8.22159668e+02,
          2.73201172e+03, 0., 0., 0., 0., 0., 2.28616528e+03, 0.,
          5.32738220e+02, 6.44186279e+02, 0., 6.57639709e+02,
          4.75936981e+02, 0., 0., 0., 4.52039825e+02, 2.31225415e+03,
          1.58596680e+03, 1.42934509e+03, 2.89545776e+03, 4.82258691e+03,
          1.83532214e+03, 9.16962402e+02, 1.74384863e+03, 1.73171069e+03,
          4.69038916e+03, 8.15293823e+02, 9.55189941e+02, 9.07675049e+02,
          5.32028320e+02, 5.71644043e+03, 0., 1.36035791e+03, 0.,
          6.38952271e+02, 0., 0., 1.13453101e+03, 3.93103027e+02, 0., 0.,
          0., 0., 1.36456689e+03, 5.29726855e+03, 7.97887891e+03,
          5.98681335e+02, 0., 0., 0., 6.39413818e+02, 2068.,
          1.63347046e+03 ]
      - [ 3.39615356e+03, 1.90080505e+03, 4.25065869e+03, 3.51562085e+03,
          0., 3.39611542e+02, 0., 1.51267975e+02, 1.32673718e+03, 0.,
          2.90334766e+03, 1.50485107e+03, 0., 0., 0., 0., 3.34013647e+03,
          9.61573792e+02, 0., 0., 2.72093945e+03, 0., 0., 3.62441711e+02,
          0., 0., 0., 1.26505042e+03, 4.44311523e+03, 1.39511340e+03,
          2.33165332e+03, 1.39028174e+03, 0., 0., 1.88613110e+03,
          3.64001196e+03, 4.76893018e+03, 2.83156567e+03, 2.74777905e+03,
          0., 2.17701630e+02, 7.28921814e+02, 5.10014282e+02,
          6.01340869e+03, 2.79606860e+03, 312., 0., 0., 4.55280322e+03,
          0., 7.26803955e+02, 8.39344971e+02, 0., 5.51572327e+02, 0.,
          1.35101416e+03, 1.31481250e+04, 1.62084790e+03, 0., 0., 0.,
          1.11102258e+03, 1.23375452e+03, 1.00725684e+03 ]
      - [ 2.60218823e+03, 7.21219043e+03, 6.18288428e+03, 0., 0., 0., 0.,
          0., 0., 2.30299854e+03, 6.79347046e+02, 1.37742163e+03,
          5.71063904e+02, 1.45830933e+03, 0., 9.33809433e+01,
          3.11307593e+03, 1.97678192e+02, 0., 2.67540649e+02,
          2.36111719e+03, 1.00539948e+03, 9.31268066e+02, 3.80789795e+03,
          1.46849097e+03, 1.68344879e+02, 0., 0., 1.88607141e+03,
          7.21619629e+03, 2.70295581e+03, 1.71566992e+03, 0.,
          2.70118500e+02, 0., 1.68461792e+03, 1.68774585e+03,
          2.75887842e+03, 2.77099951e+03, 6.09668066e+03, 1.20493030e+03,
          6.24679138e+02, 1.99042444e+03, 9.15382690e+02, 1.47363306e+03,
          7.00021667e+02, 1.98083801e+03, 0., 1.33955298e+03,
          2.05791870e+03, 1.77621545e+03, 4.21868213e+03, 2.83637085e+02,
          0., 7.64607239e+02, 2.46022095e+03, 1.21991675e+03,
          3.51283472e+03, 5.57750342e+03, 2.42737598e+03, 2.05216675e+03,
          8.22921600e+01, 0., 1.24611743e+03 ]
      - [ 2.35539331e+03, 6.05690039e+03, 4.72966504e+03, 0., 0., 0., 0.,
          0., 2.00117896e+03, 1.23170667e+03, 2.01298535e+03, 0., 0.,
          2.16633331e+02, 0., 0., 2.06769604e+03, 4.24264069e+01,
          1.17200684e+02, 2.27284033e+03, 8.76524963e+02, 5.35111206e+02,
          2.22733017e+02, 6.72180054e+02, 2.98382544e+03, 1.10230286e+03,
          3.49322205e+02, 3.09987549e+02, 2.56565747e+03, 2.69406299e+03,
          3.54217847e+03, 2.36082593e+03, 0., 5.34197144e+02,
          1.58425305e+03, 1.81700403e+03, 8.22709534e+02, 1.43035059e+03,
          2.36564941e+03, 4.24912549e+03, 1.09526221e+03, 1.25376086e+03,
          1.73791431e+03, 1.62200928e+03, 8.09499817e+02, 4.30376587e+02,
          5.21376282e+02, 1.90055444e+03, 2.18527173e+03, 1.54336133e+03,
          2.94522803e+03, 3.05633130e+03, 0., 0., 5.97467163e+02,
          1.75002466e+03, 1.63624597e+03, 3.51008374e+03, 4.37562500e+03,
          4.05577563e+03, 0., 0., 0., 0. ]
      - [ 6.43909729e+02, 8.63039648e+03, 1.22818555e+03, 1.41717163e+03,
          1.66026270e+03, 6.66483307e+01, 0., 0., 3.00745728e+02,
          7.93908081e+02, 0., 0., 1.27482898e+03, 2.04563452e+03,
          5.39646545e+02, 8.52768494e+02, 4.72056006e+03, 5.14678528e+02,
          0., 0., 5.48284607e+02, 8.96330322e+02, 6.99755676e+02,
          1.46170605e+03, 3.11978857e+03, 1.46445630e+03, 0., 0.,
          2.66916675e+03, 2.36402930e+03, 3.02073779e+03, 3.34938965e+03,
          7.32354187e+02, 0., 0., 0., 2.16453232e+02, 5.91010596e+03,
          5.27476367e+03, 4.13678467e+03, 0., 2.25334009e+03, 0.,
          1.43974561e+03, 2.70765594e+02, 0., 6.11138306e+02,
          2.55231836e+03, 2.37465479e+03, 2.19379150e+03, 2.58226660e+03,
          1.54624719e+03, 0., 0., 6.96186676e+01, 3.38506470e+03,
          2.48775928e+03, 6.64067334e+03, 2.65138135e+03, 4.40211084e+03,
          0., 1.49164337e+02, 0., 1.73972034e+03 ]
      - [ 4.94224951e+03, 1.04261597e+03, 1.47764197e+03, 2.29100952e+03,
          2.81300537e+02, 0., 0., 0., 5.09754852e+02, 5.30500879e+03, 0.,
          0., 1.40092102e+03, 3.66983124e+02, 1.02997668e+03,
          1.29337561e+03, 0., 1.76044922e+03, 2.61943921e+03,
          4.56961133e+03, 4.23367462e+02, 5.16501099e+02, 0.,
          4.17195404e+02, 0., 220., 6.03332397e+02, 3.30303320e+03,
          2.18465112e+03, 2.07061304e+03, 2.06133252e+03, 1.63476587e+03,
          2.31662280e+03, 1.45917065e+03, 5.14155640e+02, 1.05734985e+03,
          1.00316235e+03, 3.17553131e+02, 1.09524585e+03, 5.00259814e+03,
          1.51946082e+03, 1.37309338e+03, 2.66011292e+02, 0.,
          3.22601929e+02, 0., 6.62419815e+01, 3.78549866e+02, 0., 0.,
          4.81663788e+02, 1.74305249e+03, 0., 0., 2.47107959e+03,
          3.91387939e+03, 1.57224573e+03, 1.79441870e+03, 2.63368628e+03,
          9.54922729e+02, 6.32606567e+02, 2.33412671e+03, 6.01068420e+02,
          3.40189819e+02 ]
      - [ 3.03820190e+03, 4.98311475e+03, 6.09542090e+03, 3.76165234e+03,
          0., 0., 0., 0., 0., 0., 0., 4.09520093e+03, 1.19375610e+03,
          1.54961560e+03, 1.18561203e+02, 5.67841064e+02, 4.73125049e+03,
          3.39935522e+03, 3.52476855e+03, 0., 3.61980400e+01,
          1.85800964e+02, 6.18727608e+01, 2.65062256e+02, 0.,
          1.25003998e+02, 0., 4.88088867e+03, 4.91585205e+03,
          7.06595154e+02, 1.37878369e+03, 4.68893463e+02, 0.,
          1.76319946e+03, 0., 2.36905347e+03, 2.77087915e+03,
          2.58326953e+03, 2.48077368e+03, 2.18582544e+03, 5.35993457e+03,
          3.42380518e+03, 2.06928882e+03, 0., 1.75111389e+02,
          6.93512939e+02, 3.20315460e+02, 1.15166895e+03, 0., 0.,
          2.37546188e+02, 7.00459375e+03, 2.74521997e+03, 1.29464185e+03,
          8.08861572e+02, 3.30796411e+03, 1.92863159e+03, 2.67215698e+03,
          1.53042639e+03, 1.06320869e+04, 2.06503247e+03, 0., 0., 0. ]
      - [ 1.07280359e+03, 1.73194556e+03, 2.83917969e+03, 2.40370874e+03,
          1.97571204e+03, 0., 0., 0., 0., 0., 0., 0., 0., 2.46402115e+02,
          4.65792871e+03, 4.51437598e+03, 5.57679199e+02, 6.41092651e+02,
          6.72868469e+02, 3.14348950e+03, 3.36389136e+03, 4.39159210e+02,
          0., 0., 0., 0., 0., 0., 6.76486523e+03, 4.04502197e+03,
          2.48211133e+03, 0., 0., 2.75223541e+02, 0., 0., 6.39563904e+02,
          3.32027197e+03, 2.05088599e+03, 9.99903711e+03, 2.70185127e+01,
          0., 0., 0., 0., 1.03711136e+02, 2.04748627e+02, 3.13078278e+02,
          1.45063428e+03, 1.52490344e+03, 1.31887537e+03, 4.55543640e+02,
          0., 0., 1.00921738e+02, 3.05711890e+03, 5.00123389e+03,
          3.31610571e+03, 2.14253271e+03, 1.89797266e+03, 1.80399158e+03,
          5.78719299e+02, 8.57626953e+02, 0. ]
      - [ 5.26639893e+02, 2.29925928e+03, 6.97751025e+03, 8.78322510e+02,
          6.87699036e+02, 1.53363574e+03, 0., 0., 1.92509735e+02,
          4.70284821e+02, 3.11926855e+03, 3.62646484e+03, 9.18998718e+02,
          6.60601257e+02, 5.53691895e+02, 1.30622852e+03, 1.47767914e+02,
          9.85696655e+02, 8.64523010e+01, 9.26528076e+02, 3.14312305e+03,
          4.32303076e+03, 1.02124536e+03, 0., 0., 0., 0., 0.,
          4.57707129e+03, 3.42047241e+03, 4.56669482e+03, 1.15043604e+03,
          2.77650848e+02, 2.15348389e+03, 1.31425415e+03, 2.39180103e+03,
          1.88247009e+03, 1.68482239e+02, 3.23353955e+03, 3.02249512e+03,
          1.03421484e+03, 2.06030420e+03, 1.23749280e+03, 1.44325293e+03,
          5.76451233e+02, 8.77143250e+02, 2.19317123e+02, 6.25544495e+02,
          6.40399902e+02, 1.66837488e+03, 2.43942822e+03, 2.86991626e+03,
          0., 0., 2.92201355e+02, 2.38311646e+03, 1.20980530e+03,
          2.79903198e+03, 3.66167114e+03, 5.98122510e+03, 0., 0.,
          5.77361267e+02, 1.19941650e+02 ]
      - [ 1.17881294e+02, 1.34571655e+03, 3.02793896e+03, 4.63849463e+03,
          1.82861621e+03, 0., 0., 0., 0., 0., 2.48294174e+02,
          5.32961523e+03, 2.16811768e+03, 1.07800073e+03, 8.51156982e+02,
          1.59689014e+03, 3.62190356e+03, 3.47524121e+03, 1.49540759e+03,
          2.28448560e+03, 0., 0., 0., 0., 60., 0., 0., 1.00104346e+03,
          1.93920154e+03, 8.49941650e+02, 4.08242249e+02, 4.10286670e+03,
          0., 3.38343262e+03, 0., 0., 5.68255664e+03, 2.11387061e+03,
          1.12054663e+03, 1.85748425e+03, 2.21944629e+03, 3.52837842e+03,
          0., 0., 2.31091064e+03, 2.36038132e+02, 7.54258606e+02,
          4.45486237e+02, 6.71123474e+02, 1.45424097e+03, 1.17618027e+02,
          0., 0., 0., 2.02484570e+01, 3.70704590e+03, 5.69477588e+03,
          5.93299561e+03, 2.44365723e+03, 0., 0., 0., 0., 5.67490356e+02 ]
      - [ 3.36122974e+03, 3.65176929e+03, 3.40406934e+03, 4.59372021e+03,
          0., 0., 0., 0., 0., 0., 0., 2.63455151e+03, 8.50760864e+02,
          2.00674011e+03, 1.37876501e+03, 5.51515503e+02, 0.,
          6.99667969e+02, 7.71390625e+02, 2.19782544e+03, 4.24135059e+03,
          2.31840332e+03, 0., 0., 0., 0., 0., 0., 7.74239697e+03,
          4.79359473e+03, 2.51158862e+03, 2.03031567e+03, 0.,
          6.77702026e+02, 0., 2.48712692e+02, 2.77886792e+03,
          3.96384937e+03, 4.39861377e+03, 1.47218494e+03, 1.95726953e+03,
          4.41319238e+03, 0., 0., 2.61082367e+02, 6.40680908e+02,
          3.31400055e+02, 9.13131226e+02, 7.57691223e+02, 1.46145605e+03,
          9.29392273e+02, 2.15024292e+03, 0., 1.87811121e+03,
          2.68639526e+03, 1.50603992e+03, 3.45780273e+03, 2.89397754e+03,
          2.35402368e+03, 5.06316455e+03, 1.37194946e+03, 9.35557617e+02,
          1.20703711e+03, 8.27658142e+02 ]
      - [ 5.35645850e+03, 1.58468774e+03, 1.45615692e+02, 1.14097339e+03,
          4.53318878e+02, 6.72344849e+02, 3.71496979e+02, 0.,
          2.27165698e+03, 6.83549561e+02, 3.33027405e+02, 1.10588037e+03,
          0., 0., 0., 0., 4.51317285e+03, 6.99361145e+02, 0.,
          1.42669287e+03, 6.02889709e+02, 6.40963318e+02, 7.15667542e+02,
          1.10679718e+02, 0., 0., 0., 1.01442114e+03, 1.45296326e+03,
          2.64409912e+03, 3.20913379e+03, 7.50216919e+02, 2.63295654e+03,
          0., 6.99385437e+02, 2.31457227e+03, 8.98443069e+01,
          2.09024121e+03, 9.13172058e+02, 0., 5.76217334e+03,
          1.16072868e+02, 0., 0., 0., 1.29236548e+03, 1.30000647e+03, 0.,
          0., 9.42984619e+02, 1.13344543e+03, 0., 9.50576782e+02,
          1.05505078e+03, 1.15752161e+03, 1.22296472e+03, 3.78500098e+03,
          3.24376074e+03, 2.39692944e+03, 1.54852368e+03, 3.41526001e+02,
          0., 2.74758087e+02, 0. ]
      - [ 3.65273853e+03, 5.99129150e+03, 4.86323779e+03, 1.04082166e+03,
          1.22150708e+03, 1.14908105e+03, 1.48711523e+03, 7.79930786e+02,
          3.36211621e+03, 4.42449854e+03, 2.74415741e+02, 0., 0., 0., 0.,
          0., 6.31439148e+02, 1.23421008e+03, 0., 0., 2.27876147e+03,
          2.45455518e+03, 0., 0., 0., 0., 0., 0., 7.31857178e+03,
          3.43523120e+03, 3.78438940e+03, 3.42197974e+03, 0.,
          6.11871680e+03, 3.08165918e+03, 1.18920032e+03, 1.42033301e+03,
          2.34394043e+02, 6.74309021e+02, 4.54862610e+02, 4.78402252e+02,
          3.16960474e+03, 1.68774194e+03, 0., 1228., 0., 0., 0.,
          6.15652527e+02, 0., 2.63710596e+03, 1.21952539e+03,
          3.40799268e+03, 0., 7.49533157e+01, 0., 0., 1.43656094e+04,
          1.43229114e+03, 1.06834583e+03, 4.88419891e+02, 7.30504089e+02,
          2.39340759e+02, 6.85381653e+02 ]
      - [ 2.59257983e+03, 8.75670654e+02, 3.25101074e+03, 3.02552460e+02,
          0., 2.17568375e+02, 0., 7.93916870e+02, 0., 0., 7.62345093e+02,
          3.85315460e+02, 0., 1.65849335e+02, 3.89101524e+01,
          1.20991833e+03, 5.38211853e+02, 8.05096375e+02, 6.07995056e+02,
          0., 0., 1.11693164e+03, 7.16462341e+02, 0., 0., 0., 0.,
          2.22445496e+02, 1.85520251e+03, 2.31216138e+03, 2.73852124e+03,
          1.11484375e+02, 0., 1.05118980e+02, 1.96977158e+01,
          3.24141187e+03, 8.24644775e+02, 1.31503760e+03, 1.37156824e+03,
          3.38212952e+02, 4.74160156e+02, 7.44504272e+02, 3.21322266e+03,
          2.72662915e+03, 0., 0., 0., 0., 3.30339233e+02, 6.45455872e+02,
          6.89731812e+02, 0., 0., 4.11063086e+03, 1.41097009e+03,
          1.27592163e+03, 3.80527496e+02, 8.14415588e+02, 1.43351880e+03,
          8.43298218e+02, 2.89882837e+03, 2.28473186e+01, 4.96921570e+02,
          0. ]
      - [ 3.77605176e+03, 7.93153076e+02, 4.71959747e+02, 2.23992871e+03,
          4.53971375e+02, 7.61569458e+02, 3.56679138e+02, 6.62604126e+02,
          0., 0., 1.69436487e+03, 3.85945587e+02, 5.80746094e+02, 0.,
          1.12472119e+03, 9.90547180e+02, 40., 9.01516907e+02,
          5.69384094e+02, 3.81785181e+03, 1.00762628e+03, 0., 0., 0.,
          2.88998260e+02, 0., 3.28146301e+02, 7.44133667e+02,
          2.81156519e+03, 3.71332520e+03, 1.33312708e+03, 7.94154053e+02,
          0., 0., 2.30217285e+01, 1.79953296e+03, 1.03758887e+03,
          1.58488928e+03, 2.78662500e+03, 5.63059387e+02, 1.58113880e+01,
          5.46136841e+02, 9.46931763e+02, 3.17448584e+03, 0., 0., 0., 0.,
          0., 4.91949066e+02, 5.41916992e+02, 7.21711853e+02, 0.,
          7.89446167e+02, 9.52375549e+02, 2.09579126e+03, 1.08338574e+03,
          1.10965381e+03, 1.52110925e+03, 1.40330725e+03, 9.77346558e+02,
          0., 1.45835526e+02, 1.04307236e+02 ]
      - [ 1.82026636e+03, 7.89669678e+03, 4.72797168e+03, 7.09779419e+02,
          0., 0., 4.19151520e+02, 0., 2.91454956e+02, 0., 2.32411084e+03,
          4.58441357e+03, 0., 7.96172119e+02, 1.16619034e+01,
          9.81077026e+02, 1.27665796e+03, 2.02072070e+03, 0.,
          7.36778076e+02, 4.62638721e+03, 2.46916333e+03, 8.63004700e+02,
          1.79930969e+03, 226., 2.40416298e+01, 1.56531873e+03, 0.,
          6.73560010e+03, 3.27354053e+03, 2.34584351e+03, 1.27215991e+03,
          0., 6.70820389e+01, 0., 4.52394434e+03, 1.80236267e+03,
          5.32104443e+03, 4.47630176e+03, 1.26244861e+03, 2.81185303e+02,
          1.02160126e+03, 3.45020605e+03, 1.69663086e+03, 1.54022168e+03,
          1.95263953e+03, 9.47605408e+02, 0., 3.87569775e+03,
          1.08487817e+03, 1.37386841e+03, 2.75277026e+03, 0., 0.,
          3.86055145e+01, 6.76266650e+03, 2.61594434e+03, 3.40741846e+03,
          1.61844263e+03, 3.85871167e+03, 2.66864404e+03, 0.,
          3.21810791e+02, 3.51456030e+03 ]
      - [ 1.13001636e+03, 1.03709521e+04, 2.40383936e+03, 1.91292700e+03,
          1.19540787e+02, 2.34912750e+02, 6.30074585e+02, 2.10793732e+02,
          0., 7.41536743e+02, 2.31295361e+03, 3.45166089e+03, 0., 0., 0.,
          5.72483887e+02, 3.22800255e+01, 9.82788513e+02, 3.27720215e+02,
          2.91846582e+03, 5.58399072e+03, 1.05603027e+02, 0., 0., 0.,
          1.07480232e+02, 2.16363354e+03, 6.07289047e+01, 8.45908008e+03,
          2.42487695e+03, 2.18135181e+03, 3.73179810e+02, 0., 0.,
          3.75765877e+01, 5.32856201e+03, 3.06196655e+03, 6.58982764e+03,
          4.00437305e+03, 5.32506348e+02, 0., 1.38727942e+03,
          1.50511682e+03, 5.45194580e+03, 2.31832959e+03, 1.86182007e+03,
          60., 0., 1.38850085e+03, 1.73279614e+03, 1.74607129e+03,
          3.43854175e+03, 0., 0., 1.79224960e+02, 4.64407715e+03,
          1.45699939e+03, 2.69400464e+03, 3.85828613e+03, 5.47394629e+03,
          0., 4.16634033e+02, 1.71769775e+03, 1.48900049e+03 ]
      - [ 3.99212256e+03, 3.13621851e+03, 2.39207016e+02, 0., 0., 0.,
          1.06066017e+02, 0., 2.27759082e+03, 0., 0., 0., 0., 0., 0.,
          3.02654915e+01, 1.94535437e+03, 5.28015137e+01, 0., 0.,
          2.53298248e+02, 5.65941711e+02, 4.19010742e+02, 8.64793335e+02,
          2.01199072e+03, 1.47512711e+02, 0., 0., 9.22287109e+02,
          1.64966895e+03, 1.74943665e+03, 2.10088354e+03, 0.,
          1.00975623e+03, 1.36218518e+03, 1.71009827e+03, 1.10909631e+03,
          2.12318750e+03, 5.23256104e+02, 5.58175354e+02, 9.75280640e+02,
          2.40954297e+03, 1.58888281e+03, 0., 0., 0., 0., 0., 0.,
          9.27352905e+02, 4.93082153e+02, 1.29456238e+03, 5.20061523e+02,
          2.14009342e+01, 1.05349426e+03, 1.70673462e+03, 8.39238342e+02,
          1.95176526e+03, 1.90067627e+03, 2.51387939e+03, 5.20061523e+02,
          8.44602661e+02, 8.51164307e+02, 8.40394409e+02 ]
      - [ 9.15864355e+03, 5.52132629e+02, 0., 0., 0., 1.22441826e+02, 0.,
          0., 0., 0., 0., 0., 0., 0., 0., 9.36375961e+01, 4.50415430e+03,
          2.96732300e+03, 4.97643616e+02, 0., 3.45117371e+02, 0., 0., 0.,
          1.21437610e+03, 0., 3.02076141e+02, 1.75656982e+03,
          2.26881055e+03, 4.25662964e+02, 8.96620605e+02, 5.63160889e+02,
          0., 0., 3.06218872e+02, 2.12179297e+03, 1.05922644e+03,
          1.77426965e+03, 2.52078201e+02, 1.96033386e+03, 6.80566211e+03,
          8.38634644e+01, 0., 0., 0., 0., 0., 1.62505386e+02, 0., 0.,
          1.63796082e+03, 1.55082617e+03, 3.26300476e+02, 1.19373596e+03,
          1.66092688e+03, 1.73378979e+03, 1.32478174e+03, 2.54969434e+03,
          3.73782739e+03, 2.66364404e+03, 2.26045581e+03, 2.87116699e+02,
          0., 4.47966522e+02 ]
      - [ 6.29774756e+03, 4.08970068e+03, 0., 0., 1.02979846e+03, 0., 0.,
          3.91520111e+02, 4.31057526e+02, 6.44465698e+02, 0., 0., 0., 0.,
          0., 2.68164124e+02, 4.36350781e+03, 1.21284035e+02, 0.,
          2.97754944e+02, 0., 0., 7.27732117e+02, 4.92332581e+02,
          1.24359473e+03, 8.69914917e+02, 1.51208466e+02, 0.,
          1.82120667e+03, 2.38604175e+03, 1.53745544e+03, 2.47226001e+03,
          150., 5.37551880e+02, 6.66348267e+02, 3.70097900e+03,
          1.45539465e+03, 2.24596631e+03, 2.39496069e+03, 1.63167407e+03,
          2.99723462e+03, 2.70142139e+03, 2.90423828e+02, 6.57067749e+02,
          0., 5.52327820e+02, 0., 8.86002274e+01, 8.43953796e+02,
          8.38166138e+02, 1.57596399e+03, 8.55936890e+02, 1.28165234e+03,
          0., 0., 1.97931958e+03, 1.42082373e+03, 3.98040698e+03,
          5.30082959e+03, 3.57317261e+03, 0., 0., 8.24866028e+02,
          7.32892212e+02 ]
      - [ 1.08965508e+04, 1.73685840e+03, 0., 1.70880070e+01,
          3.32353821e+01, 2.68934498e+01, 2.20638103e+01, 6.32455540e+00,
          1.08930383e+03, 2.16963882e+01, 1.40526184e+02, 1.92353840e+01,
          28., 1.02956305e+01, 2.68700562e+01, 0., 5.17127930e+03,
          1.01778465e+02, 0., 8.01580688e+02, 3.58733887e+02, 0.,
          5.82359009e+02, 0., 1.27595532e+03, 0., 0., 0., 3.32083130e+03,
          1.52627832e+03, 2.18378687e+03, 1.09064111e+03, 0.,
          1.59260788e+02, 9.30892151e+02, 2.05747607e+03, 2.03654053e+03,
          1.38704675e+03, 3.35543115e+03, 1.37836902e+03, 6.35806738e+03,
          5.11468506e+02, 0., 0., 0., 0., 0., 0., 1.08193506e+03,
          5.64623779e+02, 2.21774658e+02, 0., 6.68458618e+02,
          5.59644531e+02, 8.07237320e+01, 2.32679785e+03, 1.78471838e+03,
          2.81057275e+03, 3.59498877e+03, 3.96875537e+03, 4.39247070e+02,
          1.61245155e+01, 0., 1.41421356e+02 ]
      - [ 16., 2.92914825e+02, 2.82682178e+03, 3.73210181e+03,
          3.57253662e+02, 0., 7.07106781e+00, 1.83847771e+01,
          1.96468830e+01, 2.75139008e+02, 2.29775366e+03, 1.36959448e+03,
          8.71570618e+02, 8.25131775e+02, 6.62272034e+02, 9.89207336e+02,
          1.94518079e+03, 4.93742139e+03, 0., 0., 0., 0., 0., 0., 0., 0.,
          0., 1.41174072e+03, 4.95079559e+02, 9.33932983e+02,
          1.33879736e+03, 4.72552643e+02, 0., 1.39147021e+03, 0.,
          2.15445337e+03, 1.95404443e+03, 1.36972571e+03, 1.23509875e+03,
          5.36890259e+02, 1.93765991e+03, 1.52347644e+03, 0., 0., 0.,
          8.56144897e+02, 0., 1.06662695e+03, 0., 1.48187598e+03, 0., 0.,
          0., 0., 3.39411240e+01, 0., 8.97020508e+02, 9.97821191e+03,
          2.04313492e+02, 0., 0., 0., 0., 0. ]
      - [ 1.10331177e+03, 1.02830774e+03, 2.34122900e+03, 1.40784106e+03,
          5.22499756e+03, 2.36122772e+02, 0., 0., 0., 0., 0., 0.,
          3.91874341e+03, 2.90008203e+03, 1.22865015e+03, 4.07956573e+02,
          5.68573340e+03, 8.19913025e+02, 1.55826270e+03, 0., 0., 0., 0.,
          4.03338562e+02, 3.90691681e+02, 1.77747009e+02, 4.62640259e+02,
          0., 8.24009705e+02, 8.40483765e+02, 4.28118506e+03,
          4.00066797e+03, 8.29385315e+02, 6.76628418e+02, 0., 0.,
          3.81310913e+03, 4.06441553e+03, 2.36519971e+03, 6.98491058e+01,
          3.68318262e+03, 0., 0., 0., 0., 0., 1.31216589e+03,
          1.41598022e+02, 0., 0., 3.40202881e+02, 0., 0., 1.12451465e+03,
          8.81936218e+02, 1.94406543e+03, 5.50750342e+03, 2.27837573e+03,
          4.38696094e+03, 3.53475464e+03, 0., 0., 0., 0. ]
      - [ 1.26975415e+03, 1.53387122e+03, 1.75673999e+03, 5.58289160e+03,
          1.90608984e+03, 0., 0., 0., 0., 0., 0., 2.33000073e+03,
          4.15112109e+03, 1.72714624e+03, 2.92435822e+02, 5.66294983e+02,
          3.13548682e+03, 4.08810327e+03, 2.78029980e+03, 0., 0., 0., 0.,
          0., 0., 5.55628601e+02, 3.45226807e+03, 1.13910303e+03,
          1.29552771e+03, 2.67713989e+02, 7.48903564e+02, 3.47618970e+03,
          5.97745789e+02, 0., 8.80908585e+01, 1.72604138e+03,
          4.72846094e+03, 1.47348169e+03, 1.29365759e+03, 6.60673889e+02,
          1.62958618e+03, 3.84488110e+03, 0., 0., 0., 0., 9.09597473e+02,
          3.10483494e+01, 0., 0., 4.39848511e+02, 0., 2.27582568e+03,
          2.43020947e+03, 1.17916479e+03, 1.53328369e+03, 18.,
          3.92608569e+03, 3.75891748e+03, 6.44453809e+03, 0., 0., 0., 0. ]
      - [ 1.29290112e+03, 2.40157178e+03, 5.38821387e+03, 1.55595520e+03,
          1.04062207e+03, 0., 0., 0., 6.33305725e+02, 4.45659058e+02,
          1.18084729e+03, 8.25025146e+02, 0., 4.10114624e+02,
          2.80691589e+02, 1.99256689e+03, 1.62538757e+03, 1.23322791e+03,
          0., 0., 6.41228882e+02, 2.01213110e+03, 9.93613525e+02, 0.,
          5.32533569e+02, 8.72291138e+02, 5.73927185e+02, 2.06806055e+03,
          1.99106152e+03, 3.16855884e+03, 2.50157568e+03, 7.71242065e+02,
          0., 1.54155762e+02, 1.22630811e+03, 5.13652295e+03,
          2.85092456e+03, 1.15820801e+03, 1.23954968e+03, 2.86420337e+03,
          3.24794702e+03, 0., 1.35508350e+03, 1.93391675e+03,
          5.54375305e+02, 3.51434204e+02, 1.02361139e+03, 0.,
          1.77910095e+02, 0., 8.83992371e+02, 2.07870148e+02,
          1.38043823e+03, 0., 3.18333716e+03, 1.13811499e+03,
          1.29220386e+03, 1.30474487e+03, 2.29817480e+03, 2.66895166e+03,
          3.03586816e+03, 1.05453320e+03, 2.36014429e+03, 5.59151123e+02 ]
      - [ 6.33599365e+03, 1.18875476e+03, 1.46665039e+03, 3.36642188e+03,
          1.54324341e+02, 0., 1.06299146e+03, 1.57181287e+03, 0.,
          1.58341345e+03, 2.12118164e+03, 0., 0., 0., 6.47078857e+02,
          1.79514319e+03, 2.08598730e+03, 2.33277173e+03, 0., 0.,
          1.00316260e+03, 9.31686646e+02, 1.49378760e+03, 0., 0., 0.,
          6.61635864e+02, 0., 3.14729907e+03, 1.52646069e+03,
          4.60749365e+03, 3.27276099e+03, 6.17817139e+02, 8.40231506e+02,
          1.77721960e+03, 1.39559351e+03, 3.54262573e+03, 1.38713513e+03,
          1.71508276e+03, 2.44881592e+03, 1.71160889e+03, 3.14051025e+03,
          1.10744958e+03, 1.50301746e+03, 0., 1.00133801e+03,
          1.11261084e+03, 2.43166611e+02, 6.03433533e+02, 7.00463440e+02,
          5.36805359e+02, 2.01867969e+03, 0., 0., 3.68528516e+03,
          3.97242432e+03, 8.62588501e+02, 4.63327441e+03, 1.81906250e+03,
          2.96711157e+03, 1.23160876e+03, 7.72348389e+02, 3.63890106e+02,
          0. ]
      - [ 1.72751367e+03, 1.96101697e+03, 2.33701807e+03, 1.68938770e+03,
          6.00376526e+02, 0., 7.45882019e+02, 3.28249908e+02, 0.,
          1.26629370e+03, 0., 5.56569824e+02, 0., 0., 4.52040527e+02,
          2.32237085e+03, 4.74182373e+03, 1.52014661e+03, 0., 0., 0., 0.,
          0., 0., 146., 0., 0., 4.79309906e+02, 0., 3.27256006e+03,
          1.03407874e+03, 1.79184094e+03, 0., 5.68689697e+02, 0.,
          1.44707544e+03, 2.31406982e+03, 2.50388721e+03, 2.08880933e+03,
          1.20894714e+03, 9.91645020e+02, 1.61688757e+03, 2.67615387e+02,
          7.64100769e+02, 8.65449341e+02, 0., 7.83077271e+02, 0.,
          7.26472290e+02, 4.63001068e+02, 0., 8.14984665e+01, 0., 0., 0.,
          2.19345972e+03, 8.23124609e+03, 3.06583447e+03, 0., 0., 0., 0.,
          9.93811890e+02, 7.75654541e+02 ]
      - [ 1.40071936e+03, 2.16917651e+03, 3.12902051e+03, 5.01394043e+02,
          1.20540451e+02, 1.85148590e+02, 5.37417908e+02, 0., 0.,
          5.48344788e+02, 0., 0., 0., 0., 1.78582910e+03, 6.79894531e+02,
